{"learner":{"attributes":{"best_iteration":"99","best_ntree_limit":"100","best_score":"0.04173489601859302","scikit_learn":"{\"use_label_encoder\": null, \"n_estimators\": 500, \"objective\": \"binary:logistic\", \"max_depth\": 4, \"max_leaves\": null, \"max_bin\": null, \"grow_policy\": null, \"learning_rate\": 0.18, \"verbosity\": null, \"booster\": null, \"tree_method\": null, \"gamma\": null, \"min_child_weight\": null, \"max_delta_step\": null, \"subsample\": null, \"sampling_method\": null, \"colsample_bytree\": null, \"colsample_bylevel\": null, \"colsample_bynode\": null, \"reg_alpha\": null, \"reg_lambda\": null, \"scale_pos_weight\": null, \"base_score\": null, \"missing\": NaN, \"num_parallel_tree\": null, \"random_state\": 32, \"n_jobs\": null, \"monotone_constraints\": null, \"interaction_constraints\": null, \"importance_type\": null, \"gpu_id\": null, \"validate_parameters\": null, \"predictor\": null, \"enable_categorical\": false, \"feature_types\": null, \"max_cat_to_onehot\": null, \"max_cat_threshold\": null, \"eval_metric\": null, \"early_stopping_rounds\": null, \"callbacks\": null, \"classes_\": [0, 1], \"n_classes_\": 2, \"evals_result_\": {\"validation_0\": {\"logloss\": [0.5534193061218333, 0.45413118903228505, 0.3806944469648355, 0.32384537508488825, 0.27887990968780957, 0.24170581788288753, 0.21218480306197135, 0.18750636146675026, 0.1666084591997238, 0.1498282209826337, 0.13642819354476768, 0.12524680342171876, 0.1154059734373033, 0.10709610203067443, 0.09974491663906528, 0.09283568314001941, 0.08734044571789074, 0.08284467652285363, 0.07848908463972055, 0.07523781058930983, 0.07203530153780895, 0.06910948490978004, 0.06705249220294568, 0.06502027528860649, 0.06288030642006105, 0.06130761257933173, 0.05967647577040407, 0.05835804613214821, 0.05708371797873656, 0.05614071514777428, 0.05470769616349769, 0.05352862715229318, 0.05213404053665255, 0.05146484627974505, 0.05075916711535699, 0.04963179358200765, 0.04930507956962037, 0.04870591634552537, 0.04831873174700069, 0.04808120146979314, 0.04756798246323161, 0.04696608730781372, 0.04631597418559464, 0.04609900286151485, 0.04580337584013817, 0.04538134636485214, 0.04469725070609137, 0.04457857553197373, 0.04463180254452413, 0.0443143784780257, 0.04424607957358236, 0.04408450272768132, 0.04406154949259706, 0.04383469477151716, 0.0435397863743543, 0.04350782134378445, 0.04328093317811813, 0.04299003756099926, 0.04290109496028459, 0.04256416017898552, 0.04247532591892789, 0.0425055175427085, 0.04239534929063112, 0.04245462593369553, 0.04253398293673775, 0.04232859733822516, 0.04232485309574305, 0.04235243846655833, 0.04233648407578536, 0.04229429073528698, 0.04231541919427053, 0.04229740879774888, 0.04229462338909897, 0.04236669409422036, 0.042259293091565, 0.0423093103477059, 0.04226879671541297, 0.04231038632357153, 0.04219603481408762, 0.04222614200258282, 0.04233581925721801, 0.04232165865683128, 0.04203644947206112, 0.04211766610352861, 0.04198376712537254, 0.04180900974861477, 0.04173955186344396, 0.04188273560891961, 0.04186771874776207, 0.04178226255971959, 0.04185989190789794, 0.04182466762377042, 0.04179205170050792, 0.04183753595488317, 0.04190048422223685, 0.04189791814061639, 0.04183739423127932, 0.04175891705889402, 0.04176620322024988, 0.04173489601859302, 0.04181791378664103, 0.04189505630079757, 0.04182921441437023, 0.04184216624602244, 0.04193751754456447, 0.04195859290846628, 0.04196987457311593, 0.04192711812643947, 0.04196103267757447, 0.04205914714339667, 0.04200381820435641, 0.04205066961137423, 0.04199871521750079, 0.04208610689757627, 0.04200348201631067, 0.04188992419703005, 0.04185530810603445, 0.04186543935212045, 0.04188916023889273, 0.04192287146237497, 0.04195487139452288, 0.04196513696274655, 0.04193133366973144, 0.04193253762601275, 0.04185575993402323, 0.04191117967285377, 0.04191146289827565, 0.04191235084284383, 0.04191976034101612, 0.04188334397492462, 0.04195981545720612, 0.04196719769724062, 0.04203781248479457, 0.04198687559631877, 0.0420018866377755, 0.04195153059895199, 0.04200749693513124, 0.04208349183323656, 0.04206574064828807, 0.04207479651316647, 0.04201715273446011, 0.04199073324806932, 0.04193590120681661, 0.04190899990329503, 0.04194763623393891, 0.04204224287120259, 0.04207684220801794, 0.04208313353370779, 0.04202888552368379, 0.04194245621894163, 0.04194042316215663, 0.04194488400270954, 0.04196877285073112, 0.04199858801217954, 0.04200422214093717, 0.04204350150266353, 0.04210895104753036, 0.04202907732229113, 0.04204349163486169, 0.0420969990650118, 0.04205138566673529, 0.042023423670649, 0.04210337296151691, 0.04205023300770334, 0.04203682083603663, 0.04195939281187511, 0.04204559484212825, 0.04201433179467018, 0.04205215549821428, 0.04206693397521401, 0.0420599554292499, 0.04201020056368761, 0.0420174763583428, 0.04203856285304208, 0.04210208246121334, 0.04210731476605498, 0.04205879531272214, 0.04206117172055245, 0.04201775609956323, 0.04202803811892493, 0.04202092608118901, 0.04203206647441549, 0.04202699908352103, 0.04203407153748386, 0.04199596919489922, 0.04201980203837839, 0.04198198331837167, 0.04194235925282257, 0.04197030308757742, 0.04192832417607412, 0.04199314633872541, 0.0419686712338654, 0.04195857125764403, 0.04200477706825152, 0.04198058354929532, 0.0419905690428417, 0.04194848959499724, 0.04198636754748772, 0.04202213895586784, 0.04201750718792743]}}, \"_estimator_type\": \"classifier\"}"},"feature_names":[],"feature_types":[],"gradient_booster":{"model":{"gbtree_model_param":{"num_parallel_tree":"1","num_trees":"2600","size_leaf_vector":"0"},"tree_info":[0,1,2,3,4,5,6,7,8,9,10,11,12,0,1,2,3,4,5,6,7,8,9,10,11,12,0,1,2,3,4,5,6,7,8,9,10,11,12,0,1,2,3,4,5,6,7,8,9,10,11,12,0,1,2,3,4,5,6,7,8,9,10,11,12,0,1,2,3,4,5,6,7,8,9,10,11,12,0,1,2,3,4,5,6,7,8,9,10,11,12,0,1,2,3,4,5,6,7,8,9,10,11,12,0,1,2,3,4,5,6,7,8,9,10,11,12,0,1,2,3,4,5,6,7,8,9,10,11,12,0,1,2,3,4,5,6,7,8,9,10,11,12,0,1,2,3,4,5,6,7,8,9,10,11,12,0,1,2,3,4,5,6,7,8,9,10,11,12,0,1,2,3,4,5,6,7,8,9,10,11,12,0,1,2,3,4,5,6,7,8,9,10,11,12,0,1,2,3,4,5,6,7,8,9,10,11,12,0,1,2,3,4,5,6,7,8,9,10,11,12,0,1,2,3,4,5,6,7,8,9,10,11,12,0,1,2,3,4,5,6,7,8,9,10,11,12,0,1,2,3,4,5,6,7,8,9,10,11,12,0,1,2,3,4,5,6,7,8,9,10,11,12,0,1,2,3,4,5,6,7,8,9,10,11,12,0,1,2,3,4,5,6,7,8,9,10,11,12,0,1,2,3,4,5,6,7,8,9,10,11,12,0,1,2,3,4,5,6,7,8,9,10,11,12,0,1,2,3,4,5,6,7,8,9,10,11,12,0,1,2,3,4,5,6,7,8,9,10,11,12,0,1,2,3,4,5,6,7,8,9,10,11,12,0,1,2,3,4,5,6,7,8,9,10,11,12,0,1,2,3,4,5,6,7,8,9,10,11,12,0,1,2,3,4,5,6,7,8,9,10,11,12,0,1,2,3,4,5,6,7,8,9,10,11,12,0,1,2,3,4,5,6,7,8,9,10,11,12,0,1,2,3,4,5,6,7,8,9,10,11,12,0,1,2,3,4,5,6,7,8,9,10,11,12,0,1,2,3,4,5,6,7,8,9,10,11,12,0,1,2,3,4,5,6,7,8,9,10,11,12,0,1,2,3,4,5,6,7,8,9,10,11,12,0,1,2,3,4,5,6,7,8,9,10,11,12,0,1,2,3,4,5,6,7,8,9,10,11,12,0,1,2,3,4,5,6,7,8,9,10,11,12,0,1,2,3,4,5,6,7,8,9,10,11,12,0,1,2,3,4,5,6,7,8,9,10,11,12,0,1,2,3,4,5,6,7,8,9,10,11,12,0,1,2,3,4,5,6,7,8,9,10,11,12,0,1,2,3,4,5,6,7,8,9,10,11,12,0,1,2,3,4,5,6,7,8,9,10,11,12,0,1,2,3,4,5,6,7,8,9,10,11,12,0,1,2,3,4,5,6,7,8,9,10,11,12,0,1,2,3,4,5,6,7,8,9,10,11,12,0,1,2,3,4,5,6,7,8,9,10,11,12,0,1,2,3,4,5,6,7,8,9,10,11,12,0,1,2,3,4,5,6,7,8,9,10,11,12,0,1,2,3,4,5,6,7,8,9,10,11,12,0,1,2,3,4,5,6,7,8,9,10,11,12,0,1,2,3,4,5,6,7,8,9,10,11,12,0,1,2,3,4,5,6,7,8,9,10,11,12,0,1,2,3,4,5,6,7,8,9,10,11,12,0,1,2,3,4,5,6,7,8,9,10,11,12,0,1,2,3,4,5,6,7,8,9,10,11,12,0,1,2,3,4,5,6,7,8,9,10,11,12,0,1,2,3,4,5,6,7,8,9,10,11,12,0,1,2,3,4,5,6,7,8,9,10,11,12,0,1,2,3,4,5,6,7,8,9,10,11,12,0,1,2,3,4,5,6,7,8,9,10,11,12,0,1,2,3,4,5,6,7,8,9,10,11,12,0,1,2,3,4,5,6,7,8,9,10,11,12,0,1,2,3,4,5,6,7,8,9,10,11,12,0,1,2,3,4,5,6,7,8,9,10,11,12,0,1,2,3,4,5,6,7,8,9,10,11,12,0,1,2,3,4,5,6,7,8,9,10,11,12,0,1,2,3,4,5,6,7,8,9,10,11,12,0,1,2,3,4,5,6,7,8,9,10,11,12,0,1,2,3,4,5,6,7,8,9,10,11,12,0,1,2,3,4,5,6,7,8,9,10,11,12,0,1,2,3,4,5,6,7,8,9,10,11,12,0,1,2,3,4,5,6,7,8,9,10,11,12,0,1,2,3,4,5,6,7,8,9,10,11,12,0,1,2,3,4,5,6,7,8,9,10,11,12,0,1,2,3,4,5,6,7,8,9,10,11,12,0,1,2,3,4,5,6,7,8,9,10,11,12,0,1,2,3,4,5,6,7,8,9,10,11,12,0,1,2,3,4,5,6,7,8,9,10,11,12,0,1,2,3,4,5,6,7,8,9,10,11,12,0,1,2,3,4,5,6,7,8,9,10,11,12,0,1,2,3,4,5,6,7,8,9,10,11,12,0,1,2,3,4,5,6,7,8,9,10,11,12,0,1,2,3,4,5,6,7,8,9,10,11,12,0,1,2,3,4,5,6,7,8,9,10,11,12,0,1,2,3,4,5,6,7,8,9,10,11,12,0,1,2,3,4,5,6,7,8,9,10,11,12,0,1,2,3,4,5,6,7,8,9,10,11,12,0,1,2,3,4,5,6,7,8,9,10,11,12,0,1,2,3,4,5,6,7,8,9,10,11,12,0,1,2,3,4,5,6,7,8,9,10,11,12,0,1,2,3,4,5,6,7,8,9,10,11,12,0,1,2,3,4,5,6,7,8,9,10,11,12,0,1,2,3,4,5,6,7,8,9,10,11,12,0,1,2,3,4,5,6,7,8,9,10,11,12,0,1,2,3,4,5,6,7,8,9,10,11,12,0,1,2,3,4,5,6,7,8,9,10,11,12,0,1,2,3,4,5,6,7,8,9,10,11,12,0,1,2,3,4,5,6,7,8,9,10,11,12,0,1,2,3,4,5,6,7,8,9,10,11,12,0,1,2,3,4,5,6,7,8,9,10,11,12,0,1,2,3,4,5,6,7,8,9,10,11,12,0,1,2,3,4,5,6,7,8,9,10,11,12,0,1,2,3,4,5,6,7,8,9,10,11,12,0,1,2,3,4,5,6,7,8,9,10,11,12,0,1,2,3,4,5,6,7,8,9,10,11,12,0,1,2,3,4,5,6,7,8,9,10,11,12,0,1,2,3,4,5,6,7,8,9,10,11,12,0,1,2,3,4,5,6,7,8,9,10,11,12,0,1,2,3,4,5,6,7,8,9,10,11,12,0,1,2,3,4,5,6,7,8,9,10,11,12,0,1,2,3,4,5,6,7,8,9,10,11,12,0,1,2,3,4,5,6,7,8,9,10,11,12,0,1,2,3,4,5,6,7,8,9,10,11,12,0,1,2,3,4,5,6,7,8,9,10,11,12,0,1,2,3,4,5,6,7,8,9,10,11,12,0,1,2,3,4,5,6,7,8,9,10,11,12,0,1,2,3,4,5,6,7,8,9,10,11,12,0,1,2,3,4,5,6,7,8,9,10,11,12,0,1,2,3,4,5,6,7,8,9,10,11,12,0,1,2,3,4,5,6,7,8,9,10,11,12,0,1,2,3,4,5,6,7,8,9,10,11,12,0,1,2,3,4,5,6,7,8,9,10,11,12,0,1,2,3,4,5,6,7,8,9,10,11,12,0,1,2,3,4,5,6,7,8,9,10,11,12,0,1,2,3,4,5,6,7,8,9,10,11,12,0,1,2,3,4,5,6,7,8,9,10,11,12,0,1,2,3,4,5,6,7,8,9,10,11,12,0,1,2,3,4,5,6,7,8,9,10,11,12,0,1,2,3,4,5,6,7,8,9,10,11,12,0,1,2,3,4,5,6,7,8,9,10,11,12,0,1,2,3,4,5,6,7,8,9,10,11,12,0,1,2,3,4,5,6,7,8,9,10,11,12,0,1,2,3,4,5,6,7,8,9,10,11,12,0,1,2,3,4,5,6,7,8,9,10,11,12,0,1,2,3,4,5,6,7,8,9,10,11,12,0,1,2,3,4,5,6,7,8,9,10,11,12,0,1,2,3,4,5,6,7,8,9,10,11,12,0,1,2,3,4,5,6,7,8,9,10,11,12,0,1,2,3,4,5,6,7,8,9,10,11,12,0,1,2,3,4,5,6,7,8,9,10,11,12,0,1,2,3,4,5,6,7,8,9,10,11,12,0,1,2,3,4,5,6,7,8,9,10,11,12,0,1,2,3,4,5,6,7,8,9,10,11,12,0,1,2,3,4,5,6,7,8,9,10,11,12,0,1,2,3,4,5,6,7,8,9,10,11,12,0,1,2,3,4,5,6,7,8,9,10,11,12,0,1,2,3,4,5,6,7,8,9,10,11,12,0,1,2,3,4,5,6,7,8,9,10,11,12,0,1,2,3,4,5,6,7,8,9,10,11,12,0,1,2,3,4,5,6,7,8,9,10,11,12,0,1,2,3,4,5,6,7,8,9,10,11,12,0,1,2,3,4,5,6,7,8,9,10,11,12,0,1,2,3,4,5,6,7,8,9,10,11,12,0,1,2,3,4,5,6,7,8,9,10,11,12,0,1,2,3,4,5,6,7,8,9,10,11,12,0,1,2,3,4,5,6,7,8,9,10,11,12,0,1,2,3,4,5,6,7,8,9,10,11,12,0,1,2,3,4,5,6,7,8,9,10,11,12,0,1,2,3,4,5,6,7,8,9,10,11,12,0,1,2,3,4,5,6,7,8,9,10,11,12,0,1,2,3,4,5,6,7,8,9,10,11,12,0,1,2,3,4,5,6,7,8,9,10,11,12,0,1,2,3,4,5,6,7,8,9,10,11,12,0,1,2,3,4,5,6,7,8,9,10,11,12,0,1,2,3,4,5,6,7,8,9,10,11,12,0,1,2,3,4,5,6,7,8,9,10,11,12,0,1,2,3,4,5,6,7,8,9,10,11,12,0,1,2,3,4,5,6,7,8,9,10,11,12,0,1,2,3,4,5,6,7,8,9,10,11,12,0,1,2,3,4,5,6,7,8,9,10,11,12,0,1,2,3,4,5,6,7,8,9,10,11,12,0,1,2,3,4,5,6,7,8,9,10,11,12,0,1,2,3,4,5,6,7,8,9,10,11,12,0,1,2,3,4,5,6,7,8,9,10,11,12,0,1,2,3,4,5,6,7,8,9,10,11,12,0,1,2,3,4,5,6,7,8,9,10,11,12,0,1,2,3,4,5,6,7,8,9,10,11,12,0,1,2,3,4,5,6,7,8,9,10,11,12,0,1,2,3,4,5,6,7,8,9,10,11,12,0,1,2,3,4,5,6,7,8,9,10,11,12,0,1,2,3,4,5,6,7,8,9,10,11,12,0,1,2,3,4,5,6,7,8,9,10,11,12,0,1,2,3,4,5,6,7,8,9,10,11,12,0,1,2,3,4,5,6,7,8,9,10,11,12,0,1,2,3,4,5,6,7,8,9,10,11,12,0,1,2,3,4,5,6,7,8,9,10,11,12,0,1,2,3,4,5,6,7,8,9,10,11,12,0,1,2,3,4,5,6,7,8,9,10,11,12,0,1,2,3,4,5,6,7,8,9,10,11,12,0,1,2,3,4,5,6,7,8,9,10,11,12,0,1,2,3,4,5,6,7,8,9,10,11,12,0,1,2,3,4,5,6,7,8,9,10,11,12,0,1,2,3,4,5,6,7,8,9,10,11,12,0,1,2,3,4,5,6,7,8,9,10,11,12,0,1,2,3,4,5,6,7,8,9,10,11,12],"trees":[{"base_weights":[-1.686221E0,-7.1794873E-1,-1.7960426E0,-1.5438596E0,1.3913044E0,-1.8865248E0,-1.2210526E0,-1.8588235E0,-5.4545456E-1,-8E-1,1.8E0,-1.9193858E0,-1.4222223E0,1.2592592E0,-1.5928143E0,1.2E0,-1.6363636E0,1.2E0,-1.8481013E0,-5E-1,1.6521739E0,-1.8518518E0,-4.4444445E-1],"categories":[],"categories_nodes":[],"categories_segments":[],"categories_sizes":[],"default_left":[1,1,1,1,1,1,1,0,1,0,0,0,1,1,1,0,0,0,0,0,0,0,0],"id":0,"left_children":[1,3,5,7,9,11,13,-1,15,-1,-1,-1,17,19,21,-1,-1,-1,-1,-1,-1,-1,-1],"loss_changes":[3.7683105E1,7.0088135E1,1.4787109E1,7.94825E0,1.173913E1,1.5727539E0,4.580481E1,0E0,1.7672728E1,0E0,0E0,0E0,2.7344585E1,5.491948E0,1.1596359E1,0E0,0E0,0E0,0E0,0E0,0E0,0E0,0E0],"parents":[2147483647,0,0,1,1,2,2,3,3,4,4,5,5,6,6,8,8,12,12,13,13,14,14],"right_children":[2,4,6,8,10,12,14,-1,16,-1,-1,-1,18,20,22,-1,-1,-1,-1,-1,-1,-1,-1],"split_conditions":[1.975E2,3.575E2,5.488292E2,2.305E2,1.27E2,4.815E2,4.38E2,-3.3458826E-1,2.68E2,-1.4400001E-1,3.24E-1,-3.4548944E-1,6.42E2,3.2964026E2,4.984409E2,2.1600002E-1,-2.9454547E-1,2.1600002E-1,-3.3265823E-1,-9E-2,2.973913E-1,-3.3333334E-1,-8.0000006E-2],"split_indices":[11,10,13,14,5,16,11,0,15,0,0,0,2,1,9,0,0,0,0,0,0,0,0],"split_type":[0,0,0,0,0,0,0,0,0,0,0,0,0,0,0,0,0,0,0,0,0,0,0],"sum_hessian":[3.655E2,3.8E1,3.275E2,2.75E1,1.05E1,2.81E2,4.65E1,2.025E1,7.25E0,1.5E0,9E0,2.595E2,2.15E1,5.75E0,4.075E1,2.75E0,4.5E0,2.75E0,1.875E1,1E0,4.75E0,3.275E1,8E0],"tree_param":{"num_deleted":"0","num_feature":"22","num_nodes":"23","size_leaf_vector":"0"}},{"base_weights":[-1.7025921E0,-1.804947E0,1.0545454E0,-1.8396502E0,-6.3829786E-1,-1.1428572E0,1.6444445E0,-1.28E0,-1.9285715E0,3.7037036E-1,-1.6666666E0,1.804878E0,-0E0,-1.8271605E0,9.5238096E-1,-1.9778597E0,-1.2916666E0,1.3684211E0,-1.3333334E0],"categories":[],"categories_nodes":[],"categories_segments":[],"categories_sizes":[],"default_left":[1,1,1,1,1,0,1,1,1,1,0,0,0,0,0,0,0,0,0],"id":1,"left_children":[1,3,5,7,9,-1,11,13,15,17,-1,-1,-1,-1,-1,-1,-1,-1,-1],"loss_changes":[1.0533203E2,1.3147827E1,1.9702744E1,1.460083E1,1.2805359E1,0E0,2.9680214E0,6.2813675E1,6.6744385E0,1.3302145E1,0E0,0E0,0E0,0E0,0E0,0E0,0E0,0E0,0E0],"parents":[2147483647,0,0,1,1,2,2,3,3,4,4,6,6,7,7,8,8,9,9],"right_children":[2,4,6,8,10,-1,12,14,16,18,-1,-1,-1,-1,-1,-1,-1,-1,-1],"split_conditions":[5.6458765E2,6.45E2,4.06E2,2.1120653E2,2.01E2,-2.057143E-1,2.5913208E2,2.135E2,8.235E2,9.327365E2,-3E-1,3.2487807E-1,-0E0,-3.288889E-1,1.7142858E-1,-3.5601476E-1,-2.325E-1,2.463158E-1,-2.4000001E-1],"split_indices":[16,20,11,13,21,0,17,12,6,14,0,0,0,0,0,0,0,0,0],"split_type":[0,0,0,0,0,0,0,0,0,0,0,0,0,0,0,0,0,0,0],"sum_hessian":[3.655E2,3.5275E2,1.275E1,3.42E2,1.075E1,2.5E0,1.025E1,4.9E1,2.93E2,5.75E0,5E0,9.25E0,1E0,3.95E1,9.5E0,2.7E2,2.3E1,3.75E0,2E0],"tree_param":{"num_deleted":"0","num_feature":"22","num_nodes":"19","size_leaf_vector":"0"}},{"base_weights":[-1.686221E0,-1.8225039E0,-8.269231E-1,-1.662885E0,-1.9630201E0,-1.25E-1,-1.8571428E0,-1.7992566E0,-6.987952E-1,1.1428572E0,-1.548387E0,-5E-1,-1.9E0,1.6E0,-1.8596492E0,-1.5E0,1.7931035E0,5E-1,-1.7241379E0],"categories":[],"categories_nodes":[],"categories_segments":[],"categories_sizes":[],"default_left":[1,1,1,1,0,1,1,0,1,1,1,0,0,0,0,0,0,0,0],"id":2,"left_children":[1,3,5,7,-1,9,11,-1,13,15,17,-1,-1,-1,-1,-1,-1,-1,-1],"loss_changes":[4.1412964E1,3.8120117E0,3.737088E1,1.9022614E1,0E0,5.9518433E1,2.7142334E-1,0E0,5.8348167E1,3.2763546E1,6.4421577E0,0E0,0E0,0E0,0E0,0E0,0E0,0E0,0E0],"parents":[2147483647,0,0,1,1,2,2,3,3,5,5,6,6,8,8,9,9,10,10],"right_children":[2,4,6,8,-1,10,12,-1,14,16,18,-1,-1,-1,-1,-1,-1,-1,-1],"split_conditions":[3.815E2,1.7673898E2,3.74E2,1.67612E2,-3.5334364E-1,7.004049E2,3.8781332E2,-3.238662E-1,2.745E2,7.295E2,3.925E2,-9E-2,-3.42E-1,2.8800002E-1,-3.3473685E-1,-2.7E-1,3.2275864E-1,9E-2,-3.1034485E-1],"split_indices":[16,17,17,16,0,4,16,0,20,10,11,0,0,0,0,0,0,0,0],"split_type":[0,0,0,0,0,0,0,0,0,0,0,0,0,0,0,0,0,0,0],"sum_hessian":[3.655E2,3.145E2,5.1E1,1.5325E2,1.6125E2,3.1E1,2E1,1.335E2,1.975E1,1.65E1,1.45E1,1E0,1.9E1,6.5E0,1.325E1,3E0,1.35E1,1E0,1.35E1],"tree_param":{"num_deleted":"0","num_feature":"22","num_nodes":"19","size_leaf_vector":"0"}},{"base_weights":[-1.6834925E0,-1.8690476E0,3.4920636E-1,-1.9830328E0,-1.5851852E0,-1.245283E0,1.4285715E0,1.0810811E-1,-1.9402986E0,1.1111112E0,-1.5833334E0,1.6666666E0,-1.1111112E0,-1.1794872E0,1.3846154E0,-1.9755352E0,-3.3333334E-1,-1.7837838E0,-6.666667E-1,4E-1,1.8688525E0],"categories":[],"categories_nodes":[],"categories_segments":[],"categories_sizes":[],"default_left":[1,1,1,0,1,1,1,1,1,0,1,1,0,0,0,0,0,0,0,0,0],"id":3,"left_children":[1,3,5,-1,7,9,11,13,15,-1,17,19,-1,-1,-1,-1,-1,-1,-1,-1,-1],"loss_changes":[1.3888843E2,7.7281494E0,5.5991615E1,0E0,6.1092484E1,1.231394E1,1.3492065E1,3.204019E1,4.0837708E0,0E0,1.0157642E0,3.8622932E0,0E0,0E0,0E0,0E0,0E0,0E0,0E0,0E0,0E0],"parents":[2147483647,0,0,1,1,2,2,4,4,5,5,6,6,7,7,8,8,10,10,11,11],"right_children":[2,4,6,-1,8,10,12,14,16,-1,18,20,-1,-1,-1,-1,-1,-1,-1,-1,-1],"split_conditions":[4.0096695E2,1.4629428E2,1E3,-3.5694593E-1,2.3139278E2,2.6E2,5.155E2,5.26E2,1.0797635E3,2.0000002E-1,9.745E2,1.0295E3,-2.0000002E-1,-2.123077E-1,2.4923079E-1,-3.5559633E-1,-6.0000002E-2,-3.210811E-1,-1.20000005E-1,7.2000004E-2,3.3639348E-1],"split_indices":[21,21,18,0,20,20,20,18,18,0,18,18,0,0,0,0,0,0,0,0,0],"split_type":[0,0,0,0,0,0,0,0,0,0,0,0,0,0,0,0,0,0,0,0,0],"sum_hessian":[3.655E2,3.35E2,3.05E1,2.3475E2,1.0025E2,1.225E1,1.825E1,1.75E1,8.275E1,1.25E0,1.1E1,1.7E1,1.25E0,8.75E0,8.75E0,8.075E1,2E0,8.25E0,2.75E0,2.75E0,1.425E1],"tree_param":{"num_deleted":"0","num_feature":"22","num_nodes":"21","size_leaf_vector":"0"}},{"base_weights":[-1.6889495E0,-1.75E0,1.4666667E0,6.25E-2,-1.8289855E0,-0E0,1.6923077E0,-5.777778E-1,1.3043479E0,-1.9410138E0,-1.3979933E0,4.6153846E-1,-1.6521739E0,-0E0,1.5789474E0,-1E0,-1.9549296E0,-1.8148148E0,-2.9885057E-1],"categories":[],"categories_nodes":[],"categories_segments":[],"categories_sizes":[],"default_left":[1,1,1,1,1,0,0,1,1,1,1,0,0,0,0,0,0,0,0],"id":4,"left_children":[1,3,5,7,9,-1,-1,11,13,15,17,-1,-1,-1,-1,-1,-1,-1,-1],"loss_changes":[7.3173584E1,5.1652344E1,2.4820518E0,1.3475664E1,1.3944214E1,0E0,0E0,1.3324711E1,2.059496E0,1.5970459E0,3.3704086E1,0E0,0E0,0E0,0E0,0E0,0E0,0E0,0E0],"parents":[2147483647,0,0,1,1,2,2,3,3,4,4,7,7,8,8,9,9,10,10],"right_children":[2,4,6,8,10,-1,-1,12,14,16,18,-1,-1,-1,-1,-1,-1,-1,-1],"split_conditions":[5.325E2,8.772823E0,5.4432886E2,4.025E2,3.4514188E2,-0E0,3.046154E-1,7.615829E1,2.375E2,2.8143297E1,4.355E2,8.3076924E-2,-2.973913E-1,-0E0,2.8421053E-1,-1.8E-1,-3.5188735E-1,-3.2666668E-1,-5.3793103E-2],"split_indices":[5,4,5,7,5,0,0,8,10,6,20,0,0,0,0,0,0,0,0],"split_type":[0,0,0,0,0,0,0,0,0,0,0,0,0,0,0,0,0,0,0],"sum_hessian":[3.655E2,3.59E2,6.5E0,1.5E1,3.44E2,1E0,5.5E0,1.025E1,4.75E0,2.7025E2,7.375E1,5.5E0,4.75E0,1E0,3.75E0,5E0,2.6525E2,5.3E1,2.075E1],"tree_param":{"num_deleted":"0","num_feature":"22","num_nodes":"19","size_leaf_vector":"0"}},{"base_weights":[-1.6780355E0,-1.2384342E0,-1.9427313E0,-1.5819672E0,9.74359E-1,-1.9808153E0,-1.4358975E0,-1.6470589E-1,-1.8624078E0,-1.3684211E0,1.6190476E0,4.4444445E-1,-1.875E0,-1.5294118E0,1.6842105E0,-1.9090909E0,-1.3333334E-1,-0E0,1.7288135E0,-1.1111112E0,1.3846154E0],"categories":[],"categories_nodes":[],"categories_segments":[],"categories_sizes":[],"default_left":[1,1,1,1,1,0,1,1,1,0,1,1,0,0,0,0,0,0,0,0,0],"id":5,"left_children":[1,3,5,7,9,-1,11,13,15,-1,17,19,-1,-1,-1,-1,-1,-1,-1,-1,-1],"loss_changes":[4.0240234E1,1.0834494E2,1.5373535E0,4.8183105E1,3.166763E1,0E0,1.6933762E1,5.6194427E1,7.958557E0,0E0,2.799034E0,8.1196575E0,0E0,0E0,0E0,0E0,0E0,0E0,0E0,0E0,0E0],"parents":[2147483647,0,0,1,1,2,2,3,3,4,4,6,6,7,7,8,8,10,10,11,11],"right_children":[2,4,6,8,10,-1,12,14,16,-1,18,20,-1,-1,-1,-1,-1,-1,-1,-1,-1],"split_conditions":[5.639983E2,3.248014E2,9.555E2,2.535E2,8.2E1,-3.5654676E-1,6.65E2,1.0262984E2,5.54E2,-2.463158E-1,1.595E2,5.415141E2,-3.375E-1,-2.7529413E-1,3.031579E-1,-3.4363636E-1,-2.4000002E-2,-0E0,3.1118643E-1,-2.0000002E-1,2.4923079E-1],"split_indices":[2,3,10,6,16,0,2,7,8,0,0,0,0,0,0,0,0,0,0,0,0],"split_type":[0,0,0,0,0,0,0,0,0,0,0,0,0,0,0,0,0,0,0,0,0],"sum_hessian":[3.655E2,1.395E2,2.26E2,1.21E2,1.85E1,2.075E2,1.85E1,2.025E1,1.0075E2,3.75E0,1.475E1,3.5E0,1.5E1,1.175E1,8.5E0,9.8E1,2.75E0,1E0,1.375E1,1.25E0,2.25E0],"tree_param":{"num_deleted":"0","num_feature":"22","num_nodes":"21","size_leaf_vector":"0"}},{"base_weights":[-1.7107776E0,-1.8362396E0,-5.6953645E-1,-1.1460674E0,-1.9371179E0,1.1851852E0,-1.4851485E0,-1.7014925E0,5E-1,-1.9595959E0,-1.4E0,-3.529412E-1,1.7073171E0,6.666667E-1,-1.6989248E0,-1.8360655E0,-2.5E-1,-1E0,1.7142857E0,6.666667E-1,-1.7692307E0,-1.0769231E0,1E0,5E-1,1.7837838E0,-0E0,1E0,-0E0,-1.775281E0],"categories":[],"categories_nodes":[],"categories_segments":[],"categories_sizes":[],"default_left":[1,1,1,1,1,1,1,1,1,0,1,1,1,1,1,0,0,0,0,0,0,0,0,0,0,0,0,0,0],"id":6,"left_children":[1,3,5,7,9,11,13,15,17,-1,19,21,23,25,27,-1,-1,-1,-1,-1,-1,-1,-1,-1,-1,-1,-1,-1,-1],"loss_changes":[5.143042E1,2.0738281E1,6.2411003E1,4.1535637E1,7.126465E-1,1.1444496E1,1.2747795E1,6.0845947E0,2.3571428E1,0E0,1.2625639E1,5.239819E0,5.438423E-2,6.666666E-1,3.0160675E0,0E0,0E0,0E0,0E0,0E0,0E0,0E0,0E0,0E0,0E0,0E0,0E0,0E0,0E0],"parents":[2147483647,0,0,1,1,2,2,3,3,4,4,5,5,6,6,7,7,8,8,10,10,11,11,12,12,13,13,14,14],"right_children":[2,4,6,8,10,12,14,16,18,-1,20,22,24,26,28,-1,-1,-1,-1,-1,-1,-1,-1,-1,-1,-1,-1,-1,-1],"split_conditions":[7.5804016E2,1.855E2,7.965301E2,2.21E2,7.2615735E2,2.96E2,7.865E2,6.425E2,3.5E2,-3.527273E-1,7.434397E2,9.565E2,3.0881638E2,4.587406E2,3.89E2,-3.304918E-1,-4.5E-2,-1.8E-1,3.0857146E-1,1.20000005E-1,-3.1846154E-1,-1.9384617E-1,1.8E-1,9E-2,3.210811E-1,-0E0,1.8E-1,-0E0,-3.1955057E-1],"split_indices":[4,12,6,13,4,3,10,8,0,0,6,14,0,5,11,0,0,0,0,0,0,0,0,0,0,0,0,0,0],"split_type":[0,0,0,0,0,0,0,0,0,0,0,0,0,0,0,0,0,0,0,0,0,0,0,0,0,0,0,0,0],"sum_hessian":[3.655E2,3.2875E2,3.675E1,4.35E1,2.8525E2,1.25E1,2.425E1,3.25E1,1.1E1,2.7125E2,1.4E1,3.25E0,9.25E0,2E0,2.225E1,2.95E1,3E0,5E0,6E0,2E0,1.2E1,2.25E0,1E0,1E0,8.25E0,1E0,1E0,1E0,2.125E1],"tree_param":{"num_deleted":"0","num_feature":"22","num_nodes":"29","size_leaf_vector":"0"}},{"base_weights":[-1.6971351E0,-1.9396226E0,-1.4014815E0,-1.9633027E0,-1.2222222E0,-6.666667E-1,-1.9480519E0,1.1111112E0,-1.7419355E0,4.0816328E-1,-1.18E0,-1.968254E0,-5.4545456E-1,-1.5862069E0,1.1780822E0,-1.826087E0,-2.9213482E-1],"categories":[],"categories_nodes":[],"categories_segments":[],"categories_sizes":[],"default_left":[1,1,1,0,1,1,1,0,0,1,1,0,0,0,0,0,0],"id":7,"left_children":[1,3,5,-1,7,9,11,-1,-1,13,15,-1,-1,-1,-1,-1,-1],"loss_changes":[2.3556885E1,9.7680664E-1,6.647601E1,0E0,1.28494625E1,4.103497E1,1.6536865E0,0E0,0E0,3.948851E1,2.8148445E1,0E0,0E0,0E0,0E0,0E0,0E0],"parents":[2147483647,0,0,1,1,2,2,4,4,5,5,6,6,9,9,10,10],"right_children":[2,4,6,-1,8,10,12,-1,-1,14,16,-1,-1,-1,-1,-1,-1],"split_conditions":[1.4184555E2,4.54E2,5.3967865E1,-3.533945E-1,4.0539014E2,1.6907898E2,7.065E2,2.0000002E-1,-3.135484E-1,2.215E2,4.204481E2,-3.5428572E-1,-9.818182E-2,-2.8551725E-1,2.120548E-1,-3.2869568E-1,-5.258427E-2],"split_indices":[20,9,18,0,1,7,19,0,0,13,13,0,0,0,0,0,0],"split_type":[0,0,0,0,0,0,0,0,0,0,0,0,0,0,0,0,0],"sum_hessian":[3.655E2,1.9775E2,1.6775E2,1.8975E2,8E0,7.25E1,9.525E1,1.25E0,6.75E0,2.35E1,4.9E1,9.35E1,1.75E0,6.25E0,1.725E1,2.775E1,2.125E1],"tree_param":{"num_deleted":"0","num_feature":"22","num_nodes":"17","size_leaf_vector":"0"}},{"base_weights":[-1.6834925E0,-1.7239475E0,1.4285715E0,-1.7792494E0,-8.5106385E-1,-1.8435374E0,-1.3368984E0,2.1276596E-1,-1.7647059E0,-1.2340425E0,-1.8895028E0,-1.925926E0,-5.060241E-1,-7.586207E-1,1.4545455E0,-1.8297873E0,-5E-1],"categories":[],"categories_nodes":[],"categories_segments":[],"categories_sizes":[],"default_left":[1,1,0,1,1,1,1,1,1,0,0,0,0,0,0,0,0],"id":8,"left_children":[1,3,-1,5,7,9,11,13,15,-1,-1,-1,-1,-1,-1,-1,-1],"loss_changes":[4.8604614E1,1.597229E1,0E0,7.1971436E0,2.321652E1,5.904907E0,2.190525E1,1.5276863E1,1.3454437E-1,0E0,0E0,0E0,0E0,0E0,0E0,0E0,0E0],"parents":[2147483647,0,0,1,1,3,3,4,4,5,5,6,6,7,7,8,8],"right_children":[2,4,-1,6,8,10,12,14,16,-1,-1,-1,-1,-1,-1,-1,-1],"split_conditions":[6.045E2,4.395E2,2.5714287E-1,6.3271844E2,4.205E2,1.0728081E2,2.775E2,9.15E2,9.24E2,-2.2212766E-1,-3.401105E-1,-3.466667E-1,-9.1084346E-2,-1.3655172E-1,2.618182E-1,-3.293617E-1,-9E-2],"split_indices":[7,7,0,17,9,9,7,14,0,0,0,0,0,0,0,0,0],"split_type":[0,0,0,0,0,0,0,0,0,0,0,0,0,0,0,0,0],"sum_hessian":[3.655E2,3.6125E2,4.25E0,3.3875E2,2.25E1,2.93E2,4.575E1,1.075E1,1.175E1,2.25E1,2.705E2,2.6E1,1.975E1,6.25E0,4.5E0,1.075E1,1E0],"tree_param":{"num_deleted":"0","num_feature":"22","num_nodes":"17","size_leaf_vector":"0"}},{"base_weights":[-1.6753069E0,-1.8187809E0,-9.6875E-1,-7.8431374E-1,-1.90681E0,-1.5602838E-1,-1.8991597E0,-1.4210526E0,9.3333334E-1,-1.4226804E0,-1.9452591E0,-1.8333334E0,6.8041235E-1,-1.6923077E0,-7.1428573E-1,1.6666666E0,-1.2E0,-1.6705883E0,2.5E-1,-5E-1,-1.9489696E0,1.5428572E0,-1.3548387E0],"categories":[],"categories_nodes":[],"categories_segments":[],"categories_sizes":[],"default_left":[1,1,1,1,1,1,0,1,1,1,1,0,1,0,0,0,0,0,0,0,0,0,0],"id":9,"left_children":[1,3,5,7,9,11,-1,13,15,17,19,-1,21,-1,-1,-1,-1,-1,-1,-1,-1,-1,-1],"loss_changes":[3.5391113E1,2.614209E1,4.8098175E1,2.9215477E1,2.4259033E0,5.070198E1,0E0,2.4337807E0,1.3733334E1,1.0473408E1,3.970337E-1,0E0,4.4656147E1,0E0,0E0,0E0,0E0,0E0,0E0,0E0,0E0,0E0,0E0],"parents":[2147483647,0,0,1,1,2,2,3,3,4,4,5,5,7,7,8,8,9,9,10,10,12,12],"right_children":[2,4,6,8,10,12,-1,14,16,18,20,-1,22,-1,-1,-1,-1,-1,-1,-1,-1,-1,-1],"split_conditions":[4.545E2,8.743065E1,3.055957E2,2.7832452E2,1.5488177E2,1.7569305E2,-3.4184876E-1,6.917639E0,3.285E2,1.8891867E2,1.5699238E1,-3.3E-1,3.74E2,-3.046154E-1,-1.2857144E-1,3E-1,-2.1600002E-1,-3.007059E-1,4.5E-2,-9E-2,-3.5081455E-1,2.777143E-1,-2.4387097E-1],"split_indices":[20,1,5,0,13,21,0,20,0,16,2,0,17,0,0,0,0,0,0,0,0,0,0],"split_type":[0,0,0,0,0,0,0,0,0,0,0,0,0,0,0,0,0,0,0,0,0,0,0],"sum_hessian":[3.655E2,3.025E2,6.3E1,2.45E1,2.78E2,3.425E1,2.875E1,1.8E1,6.5E0,2.325E1,2.5475E2,1.1E1,2.325E1,1.2E1,6E0,5E0,1.5E0,2.025E1,3E0,1E0,2.5375E2,1.65E1,6.75E0],"tree_param":{"num_deleted":"0","num_feature":"22","num_nodes":"23","size_leaf_vector":"0"}},{"base_weights":[-1.6889495E0,-1.8073469E0,-1.0693878E0,-1.898017E0,-1.2E0,4.1758242E-1,-1.8987342E0,-1.2307693E0,-1.9624609E0,7.1428575E-2,-1.7627119E0,-1.3103448E0,1.1515151E0,-1.8787879E0,-9.52381E-2,-1.9664922E0,-5E-1,-1.3548387E0,1.5862069E0,-1.8947369E0,1E0,-0E0,-1.6521739E0,1.5862069E0,-1.3333334E0],"categories":[],"categories_nodes":[],"categories_segments":[],"categories_sizes":[],"default_left":[1,1,1,1,1,1,0,1,1,1,1,1,1,0,0,0,0,0,0,0,0,0,0,0,0],"id":10,"left_children":[1,3,5,7,9,11,-1,13,15,17,19,21,23,-1,-1,-1,-1,-1,-1,-1,-1,-1,-1,-1,-1],"loss_changes":[2.495166E1,1.4587036E1,7.632719E1,8.968933E0,3.0532444E1,3.0360031E1,0E0,1.8953045E1,4.3023682E-1,3.2395756E1,1.265477E1,3.2473764E0,1.9937302E1,0E0,0E0,0E0,0E0,0E0,0E0,0E0,0E0,0E0,0E0,0E0,0E0],"parents":[2147483647,0,0,1,1,2,2,3,3,4,4,5,5,7,7,8,8,9,9,10,10,11,11,12,12],"right_children":[2,4,6,8,10,12,-1,14,16,18,20,22,24,-1,-1,-1,-1,-1,-1,-1,-1,-1,-1,-1,-1],"split_conditions":[5.3314417E2,6.39E2,2.971194E2,8.810065E1,6.57E2,4.4731787E2,-3.4177217E-1,8.4E1,1.0451672E3,8.12E2,5.625E2,2.0267424E2,7.520592E1,-3.3818182E-1,-1.7142858E-2,-3.5396862E-1,-9E-2,-2.4387097E-1,2.8551725E-1,-3.4105265E-1,1.8E-1,-0E0,-2.973913E-1,2.8551725E-1,-2.4000001E-1],"split_indices":[13,17,3,3,2,11,0,5,10,10,12,1,20,0,0,0,0,0,0,0,0,0,0,0,0],"split_type":[0,0,0,0,0,0,0,0,0,0,0,0,0,0,0,0,0,0,0,0,0,0,0,0,0],"sum_hessian":[3.655E2,3.0525E2,6.025E1,2.6375E2,4.15E1,2.175E1,3.85E1,2.5E1,2.3875E2,1.3E1,2.85E1,6.25E0,1.55E1,1.55E1,9.5E0,2.3775E2,1E0,6.75E0,6.25E0,2.75E1,1E0,1.5E0,4.75E0,1.35E1,2E0],"tree_param":{"num_deleted":"0","num_feature":"22","num_nodes":"25","size_leaf_vector":"0"}},{"base_weights":[-1.6780355E0,-1.366985E0,-1.9782903E0,-9.727273E-1,-1.93266E0,-1.4355829E0,3.3898306E-1,-1.9587629E0,-4E-1,-0E0,-1.7205882E0,9.247312E-1,-1.5862069E0],"categories":[],"categories_nodes":[],"categories_segments":[],"categories_sizes":[],"default_left":[1,1,0,1,1,1,1,0,0,0,0,0,0],"id":11,"left_children":[1,3,-1,5,7,9,11,-1,-1,-1,-1,-1,-1],"loss_changes":[3.152478E1,3.898877E1,0E0,6.727121E1,2.1870117E0,3.3345627E1,3.473327E1,0E0,0E0,0E0,0E0,0E0,0E0],"parents":[2147483647,0,0,1,1,3,3,4,4,5,5,6,6],"right_children":[2,4,-1,6,8,10,12,-1,-1,-1,-1,-1,-1],"split_conditions":[3.5448942E0,2.884491E2,-3.5609227E-1,7.489928E2,7.097853E2,8.291281E1,5.18E2,-3.5257733E-1,-7.2000004E-2,-0E0,-3.0970588E-1,1.6645162E-1,-2.8551725E-1],"split_indices":[20,5,0,2,15,5,12,0,0,0,0,0,0],"split_type":[0,0,0,0,0,0,0,0,0,0,0,0,0],"sum_hessian":[3.655E2,1.8225E2,1.8325E2,1.09E2,7.325E1,8.05E1,2.85E1,7.175E1,1.5E0,1.35E1,6.7E1,2.225E1,6.25E0],"tree_param":{"num_deleted":"0","num_feature":"22","num_nodes":"13","size_leaf_vector":"0"}},{"base_weights":[-1.680764E0,-1.9248979E0,-4.3265307E-1,-1.9877925E0,-1.6422764E0,3.0674848E-1,-1.8139535E0,-1.9354838E-1,-1.8173516E0,8.270677E-1,-1.7647059E0,-8.5714287E-1,-1.8947369E0,1.2941177E0,-1.5555556E0,-5E-1,-1.8325582E0,1.2293578E0,-8.5714287E-1,-1.2E0,-0E0],"categories":[],"categories_nodes":[],"categories_segments":[],"categories_sizes":[],"default_left":[1,1,1,0,1,1,1,1,1,1,0,1,0,0,0,0,0,0,0,0,0],"id":12,"left_children":[1,3,5,-1,7,9,11,13,15,17,-1,19,-1,-1,-1,-1,-1,-1,-1,-1,-1],"loss_changes":[1.1084204E2,2.1791992E0,6.311324E1,0E0,1.5246887E1,4.5380596E1,3.7765503E-2,1.7716213E1,1.8049622E-1,2.3581984E1,0E0,1.0285714E0,0E0,0E0,0E0,0E0,0E0,0E0,0E0,0E0,0E0],"parents":[2147483647,0,0,1,1,2,2,4,4,5,5,6,6,7,7,8,8,9,9,11,11],"right_children":[2,4,6,-1,8,10,12,14,16,18,-1,20,-1,-1,-1,-1,-1,-1,-1,-1,-1],"split_conditions":[8.855E2,1.55E2,6.635E2,-3.5780266E-1,1.31E2,6.795E2,5.015E2,5.34E2,3.454121E2,1.065E3,-3.1764707E-1,5.835E2,-3.4105265E-1,2.329412E-1,-2.8E-1,-9E-2,-3.2986048E-1,2.2128442E-1,-1.5428573E-1,-2.1600002E-1,-0E0],"split_indices":[18,19,17,0,7,4,8,18,6,18,0,0,0,0,0,0,0,0,0,0,0],"split_type":[0,0,0,0,0,0,0,0,0,0,0,0,0,0,0,0,0,0,0,0,0],"sum_hessian":[3.655E2,3.0525E2,6.025E1,2.4475E2,6.05E1,3.975E1,2.05E1,6.75E0,5.375E1,3.225E1,7.5E0,2.5E0,1.8E1,3.25E0,3.5E0,1E0,5.275E1,2.625E1,6E0,1.5E0,1E0],"tree_param":{"num_deleted":"0","num_feature":"22","num_nodes":"21","size_leaf_vector":"0"}},{"base_weights":[-1.4272944E0,-5.91829E-1,-1.5188404E0,-1.3144711E0,1.4729396E0,-1.6078844E0,-1.070869E0,-1.5844026E0,-4.64881E-1,-1.6506675E0,-1.2944949E0,1.270234E0,-1.4084054E0,1.0511347E0,-1.4219729E0,1.2075992E0,-1.5505153E0,-2.041743E-1,1.5852109E0,-1.5969115E0,-4.422545E-1],"categories":[],"categories_nodes":[],"categories_segments":[],"categories_sizes":[],"default_left":[1,1,1,1,0,1,1,0,1,0,1,1,1,0,0,0,0,0,0,0,0],"id":13,"left_children":[1,3,5,7,-1,9,11,-1,13,-1,15,17,19,-1,-1,-1,-1,-1,-1,-1,-1],"loss_changes":[2.6362183E1,5.690076E1,1.1066406E1,5.642433E0,0E0,1.4221191E0,4.6161247E1,0E0,1.3279381E1,0E0,2.5265972E1,3.85388E0,8.318253E0,0E0,0E0,0E0,0E0,0E0,0E0,0E0,0E0],"parents":[2147483647,0,0,1,1,2,2,3,3,5,5,6,6,8,8,10,10,11,11,12,12],"right_children":[2,4,6,8,-1,10,12,-1,14,-1,16,18,20,-1,-1,-1,-1,-1,-1,-1,-1],"split_conditions":[1.9180695E2,3.575E2,3.825E2,2.305E2,2.6512915E-1,4.0729205E2,4.37E2,-2.8519246E-1,2.68E2,-2.9712018E-1,2.7805963E2,1.7038863E2,4.984409E2,1.8920426E-1,-2.5595513E-1,2.1736786E-1,-2.7909276E-1,-3.6751375E-2,2.8533798E-1,-2.8744408E-1,-7.960582E-2],"split_indices":[11,10,9,14,0,16,11,0,15,0,11,14,9,0,0,0,0,0,0,0,0],"split_type":[0,0,0,0,0,0,0,0,0,0,0,0,0,0,0,0,0,0,0,0,0],"sum_hessian":[3.55431E2,3.5837368E1,3.1959363E2,2.681563E1,9.021741E0,2.6444098E2,5.515264E1,1.9693665E1,7.121964E0,2.2892203E2,3.5518967E1,6.601608E0,4.8551033E1,2.7181718E0,4.4037924E0,2.9520159E0,3.2566948E1,1.2239717E0,5.3776364E0,4.007845E1,8.472585E0],"tree_param":{"num_deleted":"0","num_feature":"22","num_nodes":"21","size_leaf_vector":"0"}},{"base_weights":[-1.4420965E0,-1.5294755E0,8.924362E-1,-1.557485E0,-4.6797022E-1,-1.0039681E0,1.4097016E0,-1.1076347E0,-1.6314312E0,-1.425038E0,7.489731E-1,1.5505288E0,-0E0,-1.5622624E0,1.0978798E0,-1.6509012E0,-1.9036604E-1,1.4709761E0,-6.3826555E-1],"categories":[],"categories_nodes":[],"categories_segments":[],"categories_sizes":[],"default_left":[1,1,1,1,1,0,1,1,1,0,1,0,0,0,0,0,0,0,0],"id":14,"left_children":[1,3,5,7,9,-1,11,13,15,-1,17,-1,-1,-1,-1,-1,-1,-1,-1],"loss_changes":[7.403265E1,9.491577E0,1.4642243E1,9.319519E0,1.3024947E1,0E0,2.1857834E0,5.2185295E1,7.6862183E0,0E0,6.1223288E0,0E0,0E0,0E0,0E0,0E0,0E0,0E0,0E0],"parents":[2147483647,0,0,1,1,2,2,3,3,4,4,6,6,7,7,8,8,10,10],"right_children":[2,4,6,8,10,-1,12,14,16,-1,18,-1,-1,-1,-1,-1,-1,-1,-1],"split_conditions":[5.6458765E2,4.8686285E2,4.06E2,2.0908737E2,4.025E2,-1.8071426E-1,2.5913208E2,2.135E2,6.796251E2,-2.5650686E-1,8.6175256E2,2.790952E-1,-0E0,-2.8120723E-1,1.9761837E-1,-2.9716223E-1,-3.426589E-2,2.6477572E-1,-1.14887804E-1],"split_indices":[16,16,11,13,11,0,17,12,20,0,10,0,0,0,0,0,0,0,0],"split_type":[0,0,0,0,0,0,0,0,0,0,0,0,0,0,0,0,0,0,0],"sum_hessian":[3.5523367E2,3.427498E2,1.2483892E1,3.3348306E2,9.266731E0,2.4737363E0,1.0010156E1,4.9334805E1,2.8414825E2,5.0915065E0,4.175225E0,9.010156E0,1E0,4.114512E1,8.189683E0,2.802167E2,3.931563E0,2.7063258E0,1.4688988E0],"tree_param":{"num_deleted":"0","num_feature":"22","num_nodes":"19","size_leaf_vector":"0"}},{"base_weights":[-1.4286934E0,-1.5432547E0,-7.08099E-1,-1.399949E0,-1.6798095E0,-1.10244505E-1,-1.5877662E0,-9.483346E-1,-1.5163405E0,8.2898E-1,-1.5432487E0,-1.6416227E0,7.914094E-1,-1.5225295E0,-4.953899E-1,1.4310782E0,-8.069107E-1],"categories":[],"categories_nodes":[],"categories_segments":[],"categories_sizes":[],"default_left":[1,1,1,1,0,1,0,1,1,1,0,0,0,0,0,0,0],"id":15,"left_children":[1,3,5,7,-1,9,-1,11,13,15,-1,-1,-1,-1,-1,-1,-1],"loss_changes":[2.8325867E1,3.6488647E0,2.6505327E1,6.742096E0,0E0,4.3377422E1,0E0,4.2981182E1,1.7028809E-2,2.0406021E1,0E0,0E0,0E0,0E0,0E0,0E0,0E0],"parents":[2147483647,0,0,1,1,2,2,3,3,5,5,7,7,8,8,9,9],"right_children":[2,4,6,8,-1,10,-1,12,14,16,-1,-1,-1,-1,-1,-1,-1],"split_conditions":[3.815E2,1E1,3.74E2,3.455E2,-3.0236572E-1,5.505E2,-2.8579792E-1,3.065E2,2.684582E2,7.835E2,-2.7778476E-1,-2.9549208E-1,1.4245369E-1,-2.7405533E-1,-8.917019E-2,2.5759408E-1,-1.4524393E-1],"split_indices":[16,19,17,2,0,20,0,2,18,2,0,0,0,0,0,0,0],"split_type":[0,0,0,0,0,0,0,0,0,0,0,0,0,0,0,0,0],"sum_hessian":[3.553637E2,3.0563217E2,4.9731533E1,1.5462001E2,1.5101216E2,3.0278479E1,1.9453054E1,3.355806E1,1.2106194E2,1.8545097E1,1.1733383E1,2.4036081E1,9.52198E0,1.1984416E2,1.2177867E0,1.3647326E1,4.8977704E0],"tree_param":{"num_deleted":"0","num_feature":"22","num_nodes":"17","size_leaf_vector":"0"}},{"base_weights":[-1.4273669E0,-1.5863034E0,2.887829E-1,-1.678692E0,-1.3255779E0,-9.3230474E-1,1.2730143E0,1.260693E-1,-1.5619608E0,4.7638577E-1,-1.416823E0,1.6136464E0,-4.3677452E-1,1.1984948E0,-1.3556523E0,-1.6288142E0,6.5651417E-1,-6.874394E-1,1.2811787E0,-1.1394821E0,5.480691E-1],"categories":[],"categories_nodes":[],"categories_segments":[],"categories_sizes":[],"default_left":[1,1,1,0,1,1,1,1,1,1,0,0,1,0,0,0,0,0,0,0,0],"id":16,"left_children":[1,3,5,-1,7,9,11,13,15,17,-1,-1,19,-1,-1,-1,-1,-1,-1,-1,-1],"loss_changes":[9.750604E1,5.6226196E0,3.8449085E1,0E0,3.107837E1,1.0513394E1,1.0949368E1,2.3120918E1,1.2558731E1,5.036972E0,0E0,0E0,3.1914728E0,0E0,0E0,0E0,0E0,0E0,0E0,0E0,0E0],"parents":[2147483647,0,0,1,1,2,2,4,4,5,5,6,6,7,7,8,8,9,9,12,12],"right_children":[2,4,6,-1,8,10,12,14,16,18,-1,-1,20,-1,-1,-1,-1,-1,-1,-1,-1],"split_conditions":[1.01795435E3,4.6E2,4E2,-3.0216455E-1,4.1702197E2,1.127E3,4.165E2,5.815E2,4.585E2,2.760265E2,-2.5502816E-1,2.9045635E-1,8.265E2,2.1572907E-1,-2.4401742E-1,-2.9318658E-1,1.18172556E-1,-1.2373909E-1,2.3061217E-1,-2.051068E-1,9.8652445E-2],"split_indices":[18,18,21,0,6,14,20,14,21,3,0,0,0,0,0,0,0,0,0,0,0],"split_type":[0,0,0,0,0,0,0,0,0,0,0,0,0,0,0,0,0,0,0,0,0],"sum_hessian":[3.5480164E2,3.2479712E2,3.0004519E1,2.358017E2,8.8995415E1,1.3414529E1,1.6589989E1,1.2527808E1,7.6467606E1,3.4374008E0,9.977128E0,1.3880818E1,2.7091706E0,7.378569E0,5.149239E0,7.44887E1,1.9789102E0,1.4648597E0,1.9725411E0,1.489419E0,1.2197516E0],"tree_param":{"num_deleted":"0","num_feature":"22","num_nodes":"21","size_leaf_vector":"0"}},{"base_weights":[-1.4275796E0,-1.4802092E0,1.2662048E0,5.609268E-2,-1.5482018E0,-0E0,1.4648452E0,-4.987303E-1,1.1349794E0,-1.6461742E0,-1.1755685E0,3.9185438E-1,-1.4341105E0,-0E0,1.3777411E0,-8.5615164E-1,-1.6580335E0,-1.614194E0,-2.0105858E-1],"categories":[],"categories_nodes":[],"categories_segments":[],"categories_sizes":[],"default_left":[1,1,1,1,1,0,0,1,1,1,1,0,0,0,0,0,0,0,0],"id":17,"left_children":[1,3,5,7,9,-1,-1,11,13,15,17,-1,-1,-1,-1,-1,-1,-1,-1],"loss_changes":[5.2444214E1,3.6680603E1,1.8547945E0,1.0031155E1,1.0313599E1,0E0,0E0,9.8394985E0,1.5637083E0,1.0461426E0,3.1026764E1,0E0,0E0,0E0,0E0,0E0,0E0,0E0,0E0],"parents":[2147483647,0,0,1,1,2,2,3,3,4,4,7,7,8,8,9,9,10,10],"right_children":[2,4,6,8,10,-1,-1,12,14,16,18,-1,-1,-1,-1,-1,-1,-1,-1],"split_conditions":[5.325E2,8.772823E0,5.4432886E2,4.025E2,3.4514188E2,-0E0,2.6367214E-1,7.615829E1,2.375E2,2.8143297E1,6.45E2,7.053379E-2,-2.581399E-1,-0E0,2.4799341E-1,-1.541073E-1,-2.9844603E-1,-2.9055494E-1,-3.6190547E-2],"split_indices":[5,4,5,7,5,0,0,8,10,6,18,0,0,0,0,0,0,0,0],"split_type":[0,0,0,0,0,0,0,0,0,0,0,0,0,0,0,0,0,0,0],"sum_hessian":[3.5569763E2,3.4932327E2,6.3743606E0,1.4812306E1,3.34511E2,1E0,5.3743606E0,1.0137026E1,4.6752806E0,2.6216513E2,7.234585E1,5.490521E0,4.6465044E0,1E0,3.6752808E0,4.9597178E0,2.572054E2,4.9437622E1,2.2908226E1],"tree_param":{"num_deleted":"0","num_feature":"22","num_nodes":"19","size_leaf_vector":"0"}},{"base_weights":[-1.4225254E0,-1.0466672E0,-1.6498094E0,-1.3383378E0,8.199588E-1,-1.6817762E0,-1.2238065E0,-1.3947152E-1,-1.5803044E0,-1.1890339E0,1.378213E0,3.79808E-1,-1.6035738E0,-1.2731009E0,1.575919E0,-1.6212647E0,-1.04541875E-1,-0E0,1.4737735E0,-1.0059203E0,1.226004E0],"categories":[],"categories_nodes":[],"categories_segments":[],"categories_sizes":[],"default_left":[1,1,1,1,1,0,1,1,1,0,1,1,0,0,0,0,0,0,0,0,0],"id":18,"left_children":[1,3,5,7,9,-1,11,13,15,-1,17,19,-1,-1,-1,-1,-1,-1,-1,-1,-1],"loss_changes":[2.8680176E1,7.5612915E1,9.3878174E-1,3.422734E1,2.3078009E1,0E0,1.2200663E1,4.291941E1,5.7973785E0,0E0,2.0311737E0,6.4548416E0,0E0,0E0,0E0,0E0,0E0,0E0,0E0,0E0,0E0],"parents":[2147483647,0,0,1,1,2,2,3,3,4,4,6,6,7,7,8,8,10,10,11,11],"right_children":[2,4,6,8,10,-1,12,14,16,-1,18,20,-1,-1,-1,-1,-1,-1,-1,-1,-1],"split_conditions":[5.639983E2,3.248014E2,9.555E2,2.1581335E2,8.2E1,-3.027197E-1,6.65E2,1.3185123E2,5.54E2,-2.1402611E-1,1.595E2,5.415141E2,-2.886433E-1,-2.2915816E-1,2.8366545E-1,-2.9182765E-1,-1.8817538E-2,-0E0,2.6527923E-1,-1.8106566E-1,2.2068073E-1],"split_indices":[2,3,10,4,16,0,2,3,8,0,0,0,0,0,0,0,0,0,0,0,0],"split_type":[0,0,0,0,0,0,0,0,0,0,0,0,0,0,0,0,0,0,0,0,0],"sum_hessian":[3.5494287E2,1.3586642E2,2.1907645E2,1.1775031E2,1.8116114E1,2.0104262E2,1.8033833E1,2.003916E1,9.771115E1,3.693691E0,1.4422422E1,3.4530013E0,1.4580832E1,1.2220791E1,7.818369E0,9.4976456E1,2.7346997E0,1E0,1.3422422E1,1.2375829E0,2.2154183E0],"tree_param":{"num_deleted":"0","num_feature":"22","num_nodes":"21","size_leaf_vector":"0"}},{"base_weights":[-1.4481778E0,-1.5564878E0,-4.708695E-1,-9.682051E-1,-1.6430966E0,1.0210452E0,-1.2524506E0,-1.4431998E0,4.2817885E-1,-1.6812027E0,-1.3617005E0,-2.9489228E-1,1.4726309E0,6.0846215E-1,-1.4424126E0,-1.5597435E0,-2.1633779E-1,-8.5615164E-1,1.4816319E0,9.180592E-1,-1.5082024E0,5.358123E-1,-1.0901614E0,-0E0,-1.5088323E0],"categories":[],"categories_nodes":[],"categories_segments":[],"categories_sizes":[],"default_left":[1,1,1,1,1,1,1,1,1,0,1,1,0,0,1,0,0,0,0,0,0,0,0,0,0],"id":19,"left_children":[1,3,5,7,9,11,13,15,17,-1,19,21,-1,-1,23,-1,-1,-1,-1,-1,-1,-1,-1,-1,-1],"loss_changes":[3.696881E1,1.4723755E1,4.4385963E1,2.9487995E1,6.882324E-1,8.31407E0,9.612198E0,4.3391724E0,1.725957E1,0E0,1.4203079E1,3.3726165E0,0E0,0E0,2.176361E0,0E0,0E0,0E0,0E0,0E0,0E0,0E0,0E0,0E0,0E0],"parents":[2147483647,0,0,1,1,2,2,3,3,4,4,5,5,6,6,7,7,8,8,10,10,11,11,14,14],"right_children":[2,4,6,8,10,12,14,16,18,-1,20,22,-1,-1,24,-1,-1,-1,-1,-1,-1,-1,-1,-1,-1],"split_conditions":[7.5804016E2,1.855E2,7.965301E2,2.21E2,3.9794824E2,2.96E2,7.865E2,6.425E2,3.5E2,-3.0261648E-1,3.36E2,5.277484E2,2.6507357E-1,1.0952319E-1,3.89E2,-2.8075385E-1,-3.8940802E-2,-1.541073E-1,2.6669374E-1,1.6525066E-1,-2.7147645E-1,9.644622E-2,-1.9622907E-1,-0E0,-2.7158985E-1],"split_indices":[4,12,6,13,1,3,10,8,0,0,12,11,0,0,11,0,0,0,0,0,0,0,0,0,0],"split_type":[0,0,0,0,0,0,0,0,0,0,0,0,0,0,0,0,0,0,0,0,0,0,0,0,0],"sum_hessian":[3.5517352E2,3.1920508E2,3.5968456E1,4.252652E1,2.7667856E2,1.2259888E1,2.370857E1,3.170739E1,1.081913E1,2.3929868E2,3.7379875E1,3.2209387E0,9.038949E0,1.9919436E0,2.1716627E1,2.8708908E1,2.9984818E0,4.9597178E0,5.8594117E0,1.9390593E0,3.5440815E1,1.734942E0,1.4859967E0,1E0,2.0716627E1],"tree_param":{"num_deleted":"0","num_feature":"22","num_nodes":"25","size_leaf_vector":"0"}},{"base_weights":[-1.4374062E0,-1.6459025E0,-1.1848047E0,-1.671017E0,-1.1042436E0,-5.6211644E-1,-1.6551496E0,1.144493E0,-1.5510306E0,-9.829034E-2,-1.4423039E0,-1.6721886E0,-4.8376608E-1,-1.4549551E0,4.9028468E-1,-1.6223351E0,6.05434E-1],"categories":[],"categories_nodes":[],"categories_segments":[],"categories_sizes":[],"default_left":[1,1,1,0,1,1,1,0,0,1,1,0,0,0,0,0,0],"id":20,"left_children":[1,3,5,-1,7,9,11,-1,-1,13,15,-1,-1,-1,-1,-1,-1],"loss_changes":[1.6829468E1,7.7716064E-1,4.733687E1,0E0,1.331948E1,2.9428448E1,1.0546722E0,0E0,0E0,3.944675E1,1.0170307E1,0E0,0E0,0E0,0E0,0E0,0E0],"parents":[2147483647,0,0,1,1,2,2,4,4,5,5,6,6,9,9,10,10],"right_children":[2,4,6,-1,8,10,12,-1,-1,14,16,-1,-1,-1,-1,-1,-1],"split_conditions":[1.4184555E2,4.3918262E2,5.3967865E1,-3.0078307E-1,3.918341E2,3.03E2,7.065E2,2.0600875E-1,-2.7918553E-1,1.49E2,4.76E2,-3.0099398E-1,-8.70779E-2,-2.6189193E-1,8.825125E-2,-2.9202032E-1,1.0897812E-1],"split_indices":[20,9,18,0,1,7,19,0,0,17,9,0,0,0,0,0,0],"split_type":[0,0,0,0,0,0,0,0,0,0,0,0,0,0,0,0,0],"sum_hessian":[3.5557422E2,1.9177116E2,1.6380304E2,1.8128091E2,1.0490257E1,7.143094E1,9.23721E1,1.4799371E0,9.01032E0,4.7507774E1,2.3923164E1,9.062631E1,1.7457895E0,1.3929136E1,3.357864E1,2.2180832E1,1.7423309E0],"tree_param":{"num_deleted":"0","num_feature":"22","num_nodes":"17","size_leaf_vector":"0"}},{"base_weights":[-1.421809E0,-1.4568046E0,1.2379328E0,-1.5860251E0,-1.106131E0,-1.1170144E0,-1.6280602E0,-5.8625704E-1,-1.6385645E0,-1.5547961E0,2.652844E-1,-1.6387467E0,-7.977134E-1,-1.2567073E0,5.567735E-1,-5.169163E-1,-1.6752566E0],"categories":[],"categories_nodes":[],"categories_segments":[],"categories_sizes":[],"default_left":[1,1,0,1,1,1,1,1,1,0,0,0,0,0,0,0,0],"id":21,"left_children":[1,3,-1,5,7,9,11,13,15,-1,-1,-1,-1,-1,-1,-1,-1],"loss_changes":[3.505902E1,1.4246033E1,0E0,3.2228394E0,2.6271835E1,1.5068569E1,7.558594E-1,4.0040894E1,1.1114655E0,0E0,0E0,0E0,0E0,0E0,0E0,0E0,0E0],"parents":[2147483647,0,0,1,1,3,3,4,4,5,5,6,6,7,7,8,8],"right_children":[2,4,-1,6,8,10,12,14,16,-1,-1,-1,-1,-1,-1,-1,-1],"split_conditions":[6.045E2,6.44E2,2.2282791E-1,1.0728081E2,4.895E2,2.765E2,6.335E2,9.925E2,1.485E2,-2.798633E-1,4.7751192E-2,-2.9497442E-1,-1.4358842E-1,-2.2620733E-1,1.0021923E-1,-9.304494E-2,-3.0154622E-1],"split_indices":[7,4,0,9,12,8,20,14,9,0,0,0,0,0,0,0,0],"split_type":[0,0,0,0,0,0,0,0,0,0,0,0,0,0,0,0,0],"sum_hessian":[3.5628073E2,3.5210022E2,4.180512E0,2.5471645E2,9.738378E1,2.3219166E1,2.3149728E2,5.033613E1,4.7047653E1,1.7539515E1,5.6796517E0,2.2759459E2,3.9027E0,3.1664E1,1.8672127E1,1.9682401E0,4.507941E1],"tree_param":{"num_deleted":"0","num_feature":"22","num_nodes":"17","size_leaf_vector":"0"}},{"base_weights":[-1.4202683E0,-1.5459852E0,-8.423187E-1,-6.849458E-1,-1.6191764E0,-1.3842349E-1,-1.6243004E0,-1.2451897E0,7.913796E-1,-5.33102E-1,-1.6282315E0,-1.5773327E0,5.810784E-1,-6.356797E-1,-1.4702202E0,1.4452215E0,-1.0783902E0,2.8636047E-1,-1.0590233E0,1.3322725E0,-1.1750995E0],"categories":[],"categories_nodes":[],"categories_segments":[],"categories_sizes":[],"default_left":[1,1,1,1,1,1,0,1,1,1,0,0,1,0,0,0,0,0,0,0,0],"id":22,"left_children":[1,3,5,7,9,11,-1,13,15,17,-1,-1,19,-1,-1,-1,-1,-1,-1,-1,-1],"loss_changes":[2.4595825E1,1.7265137E1,3.603661E1,2.1311468E1,1.7675171E0,3.794212E1,0E0,1.5621357E0,1.0570795E1,1.8990012E0,0E0,0E0,3.398221E1,0E0,0E0,0E0,0E0,0E0,0E0,0E0,0E0],"parents":[2147483647,0,0,1,1,2,2,3,3,4,4,5,5,7,7,8,8,9,9,12,12],"right_children":[2,4,6,8,10,12,-1,14,16,18,-1,-1,20,-1,-1,-1,-1,-1,-1,-1,-1],"split_conditions":[4.4350674E2,8.743065E1,3.055957E2,2.7832452E2,2.2450882E1,1.7569305E2,-2.9237407E-1,3.915E2,3.285E2,4.76E2,-2.930817E-1,-2.839199E-1,3.74E2,-1.1442235E-1,-2.6463965E-1,2.6013988E-1,-1.9411024E-1,5.1544886E-2,-1.9062419E-1,2.3980907E-1,-2.1151792E-1],"split_indices":[20,1,5,0,6,21,0,10,0,14,0,0,17,0,0,0,0,0,0,0,0],"split_type":[0,0,0,0,0,0,0,0,0,0,0,0,0,0,0,0,0,0,0,0,0],"sum_hessian":[3.5543713E2,2.9055908E2,6.487803E1,2.3575016E1,2.6698407E2,3.47632E1,3.0114832E1,1.720321E1,6.3718057E0,2.7026443E0,2.6428143E2,1.11908045E1,2.3572395E1,5.6701355E0,1.1533074E1,4.8891664E0,1.4826391E0,1.2345468E0,1.4680976E0,1.6679306E1,6.893089E0],"tree_param":{"num_deleted":"0","num_feature":"22","num_nodes":"21","size_leaf_vector":"0"}},{"base_weights":[-1.4321865E0,-1.1921605E0,-1.6658635E0,-8.590475E-1,-1.6236653E0,-1.6942967E0,-3.8059402E-1,-1.092827E0,1.6843134E0,-1.644729E0,-4.3765083E-1,-1.0547633E0,9.7470605E-1,-1.4511037E0,-2.5494479E-2,-1.6902574E0,-1.014744E0],"categories":[],"categories_nodes":[],"categories_segments":[],"categories_sizes":[],"default_left":[1,1,1,1,1,0,1,1,0,1,0,0,0,0,0,0,0],"id":23,"left_children":[1,3,5,7,9,-1,11,13,-1,15,-1,-1,-1,-1,-1,-1,-1],"loss_changes":[1.799524E1,2.4370773E1,5.8598633E0,6.32509E1,1.2030029E0,0E0,5.7264347E0,3.636544E1,0E0,4.4354248E-1,0E0,0E0,0E0,0E0,0E0,0E0,0E0],"parents":[2147483647,0,0,1,1,2,2,3,3,4,4,6,6,7,7,9,9],"right_children":[2,4,6,8,10,-1,12,14,-1,16,-1,-1,-1,-1,-1,-1,-1],"split_conditions":[1.906974E1,6.751577E2,6.835E2,5.816859E2,4.2051813E2,-3.0497342E-1,5.985E2,5.2682294E2,3.0317643E-1,9.67E2,-7.877715E-2,-1.8985741E-1,1.7544709E-1,-2.6119867E-1,-4.5890063E-3,-3.0424634E-1,-1.8265393E-1],"split_indices":[20,2,21,15,19,0,20,13,0,10,0,0,0,0,0,0,0],"split_type":[0,0,0,0,0,0,0,0,0,0,0,0,0,0,0,0,0],"sum_hessian":[3.5524432E2,1.7825153E2,1.769928E2,1.022824E2,7.596913E1,1.7285068E2,4.142106E0,9.419459E1,8.087814E0,7.426345E1,1.7056863E0,2.9142268E0,1.2278795E0,7.025289E1,2.3941689E1,6.768864E1,6.574813E0],"tree_param":{"num_deleted":"0","num_feature":"22","num_nodes":"17","size_leaf_vector":"0"}},{"base_weights":[-1.420031E0,-1.1671903E0,-1.7030188E0,1.1533486E-1,-1.3361167E0,-1.5262902E0,1.1856709E0,-7.741044E-1,-1.6555269E0,1.6267486E0,-1.1216276E0,1.944802E-1,-1.5263511E0,-1.6934538E0,-8.5558736E-1],"categories":[],"categories_nodes":[],"categories_segments":[],"categories_sizes":[],"default_left":[1,1,0,1,1,0,1,1,1,0,0,0,0,0,0],"id":24,"left_children":[1,3,-1,5,7,-1,9,11,13,-1,-1,-1,-1,-1,-1],"loss_changes":[2.3539062E1,4.1664E1,0E0,4.260833E1,2.912381E1,0E0,1.6701483E1,4.6387047E1,1.8010559E0,0E0,0E0,0E0,0E0,0E0,0E0],"parents":[2147483647,0,0,1,1,3,3,4,4,6,6,7,7,8,8],"right_children":[2,4,-1,6,8,-1,10,12,14,-1,-1,-1,-1,-1,-1],"split_conditions":[4.1104646E0,1.0771005E2,-3.0654338E-1,2.59E2,4.8297417E-1,-2.7473223E-1,1.7723962E2,2.83E2,7.04E2,2.9281476E-1,-2.0189297E-1,3.5006437E-2,-2.747432E-1,-3.048217E-1,-1.5400574E-1],"split_indices":[18,5,0,8,16,0,20,5,17,0,0,0,0,0,0],"split_type":[0,0,0,0,0,0,0,0,0,0,0,0,0,0,0],"sum_hessian":[3.5576477E2,1.9059694E2,1.6516783E2,2.2219439E1,1.683775E2,8.601271E0,1.3618168E1,6.2257317E1,1.0612018E2,1.1680253E1,1.9379153E0,2.7539381E1,3.4717937E1,1.0025011E2,5.8700714E0],"tree_param":{"num_deleted":"0","num_feature":"22","num_nodes":"15","size_leaf_vector":"0"}},{"base_weights":[-1.4257145E0,-1.6336747E0,-3.754784E-1,-1.6878737E0,-1.3912932E0,2.4872819E-1,-1.5545244E0,-1.6757104E-1,-1.5404574E0,6.88198E-1,-1.5200331E0,1.1283876E0,-1.3596488E0,-9.142175E-1,-1.5985583E0,-6.0786915E-1,1.1404884E0],"categories":[],"categories_nodes":[],"categories_segments":[],"categories_sizes":[],"default_left":[1,1,1,0,1,1,0,1,1,1,0,0,0,0,0,0,0],"id":25,"left_children":[1,3,5,-1,7,9,-1,11,13,15,-1,-1,-1,-1,-1,-1,-1],"loss_changes":[7.719141E1,1.5540161E0,4.4676376E1,0E0,1.06898575E1,3.2301727E1,0E0,1.33349495E1,4.7930145E-1,1.9976685E1,0E0,0E0,0E0,0E0,0E0,0E0,0E0],"parents":[2147483647,0,0,1,1,2,2,4,4,5,5,7,7,8,8,9,9],"right_children":[2,4,6,-1,8,10,-1,12,14,16,-1,-1,-1,-1,-1,-1,-1],"split_conditions":[8.855E2,1.55E2,6.635E2,-3.0381727E-1,1.31E2,6.795E2,-2.798144E-1,5.34E2,1.55E2,1.0465E3,-2.7360597E-1,2.0310977E-1,-2.4473679E-1,-1.6455916E-1,-2.877405E-1,-1.0941645E-1,2.0528792E-1],"split_indices":[18,19,17,0,7,4,0,18,7,14,0,0,0,0,0,0,0],"split_type":[0,0,0,0,0,0,0,0,0,0,0,0,0,0,0,0,0],"sum_hessian":[3.552369E2,2.9605804E2,5.917884E1,2.3708076E2,5.8977295E1,3.9209644E1,1.9969194E1,6.6385946E0,5.23387E1,3.1895695E1,7.3139496E0,3.2063081E0,3.4322867E0,5.864397E0,4.6474304E1,8.162254E0,2.373344E1],"tree_param":{"num_deleted":"0","num_feature":"22","num_nodes":"17","size_leaf_vector":"0"}},{"base_weights":[-1.26069E0,-9.981955E-1,-1.5152192E0,-1.335556E0,-3.3073553E-1,-1.0747656E0,-1.4775136E0,1.2596005E0,-1.1092709E0,-1.3602594E0,2.9007006E-1,1.5077896E0,-9.3585247E-1,-1.3980906E0,1.4614908E0],"categories":[],"categories_nodes":[],"categories_segments":[],"categories_sizes":[],"default_left":[1,1,0,1,1,1,0,1,1,0,0,0,0,0,0],"id":26,"left_children":[1,3,-1,5,7,9,-1,11,13,-1,-1,-1,-1,-1,-1],"loss_changes":[2.0776306E1,3.719899E1,0E0,2.51062E0,7.253112E1,1.702908E1,0E0,1.1954742E1,3.1076263E1,0E0,0E0,0E0,0E0,0E0,0E0],"parents":[2147483647,0,0,1,1,3,3,4,4,5,5,7,7,8,8],"right_children":[2,4,-1,6,8,10,-1,12,14,-1,-1,-1,-1,-1,-1],"split_conditions":[3.5448942E0,1.2948863E2,-2.7273947E-1,3.9013434E2,8.6939316E1,2.99E2,-2.6595244E-1,6.32E2,4.6444464E2,-2.448467E-1,5.221261E-2,2.7140215E-1,-1.6845345E-1,-2.5165632E-1,2.6306835E-1],"split_indices":[20,18,0,11,19,9,0,18,9,0,0,0,0,0,0],"split_type":[0,0,0,0,0,0,0,0,0,0,0,0,0,0,0],"sum_hessian":[3.326025E2,1.6616222E2,1.6644029E2,1.0970968E2,5.6452538E1,4.1690666E1,6.801901E1,1.8350185E1,3.8102352E1,3.448129E1,7.2093782E0,1.6767855E1,1.5823315E0,3.4664074E1,3.438279E0],"tree_param":{"num_deleted":"0","num_feature":"22","num_nodes":"15","size_leaf_vector":"0"}},{"base_weights":[-1.274546E0,-1.35284E0,7.7979016E-1,-1.378288E0,-4.1234073E-1,-8.934651E-1,1.2507757E0,-9.696237E-1,-1.4462159E0,-1.2787682E0,6.5375656E-1,1.3830602E0,-0E0,-1.3794844E0,9.4586307E-1,-1.4648453E0,-1.6312338E-1,1.2967602E0,-5.7714176E-1],"categories":[],"categories_nodes":[],"categories_segments":[],"categories_sizes":[],"default_left":[1,1,1,1,1,0,1,1,1,0,1,0,0,0,0,0,0,0,0],"id":27,"left_children":[1,3,5,7,9,-1,11,13,15,-1,17,-1,-1,-1,-1,-1,-1,-1,-1],"loss_changes":[5.4635315E1,7.1206665E0,1.1255482E1,7.268982E0,9.971822E0,0E0,1.7298985E0,3.8640182E1,6.114868E0,0E0,4.781768E0,0E0,0E0,0E0,0E0,0E0,0E0,0E0,0E0],"parents":[2147483647,0,0,1,1,2,2,3,3,4,4,6,6,7,7,8,8,10,10],"right_children":[2,4,6,8,10,-1,12,14,16,-1,18,-1,-1,-1,-1,-1,-1,-1,-1],"split_conditions":[5.6458765E2,4.8686285E2,4.06E2,2.0908737E2,4.025E2,-1.6082372E-1,2.5913208E2,2.135E2,6.796251E2,-2.3017828E-1,8.6175256E2,2.4895085E-1,-0E0,-2.483072E-1,1.7025536E-1,-2.6367217E-1,-2.9362211E-2,2.3341684E-1,-1.03885524E-1],"split_indices":[16,16,11,13,11,0,17,12,20,0,10,0,0,0,0,0,0,0,0],"split_type":[0,0,0,0,0,0,0,0,0,0,0,0,0,0,0,0,0,0,0],"sum_hessian":[3.321241E2,3.2025998E2,1.186414E1,3.1136948E2,8.890506E0,2.408945E0,9.455194E0,4.655598E1,2.6481348E2,4.794492E0,4.0960145E0,8.455194E0,1E0,3.858063E1,7.975352E0,2.60884E2,3.929479E0,2.6553764E0,1.4406378E0],"tree_param":{"num_deleted":"0","num_feature":"22","num_nodes":"19","size_leaf_vector":"0"}},{"base_weights":[-1.2620765E0,-1.3640599E0,-6.2633187E-1,-1.2352878E0,-1.4993061E0,-1.0062979E-1,-1.4095552E0,-1.0722892E0,-1.461972E0,7.193292E-1,-1.3635573E0,-4.828503E-1,-1.4539747E0,-3.0299753E-1,-1.2538743E0,1.2570539E0,-7.00816E-1,-1.4284754E0,-4.0693107E-1],"categories":[],"categories_nodes":[],"categories_segments":[],"categories_sizes":[],"default_left":[1,1,1,1,0,1,1,1,0,1,1,0,0,0,0,0,0,0,0],"id":28,"left_children":[1,3,5,7,-1,9,11,13,-1,15,17,-1,-1,-1,-1,-1,-1,-1,-1],"loss_changes":[2.0800781E1,3.145935E0,1.9630531E1,4.07399E0,0E0,3.1852018E1,8.8695526E-2,1.2551628E1,0E0,1.518435E1,1.6897011E-1,0E0,0E0,0E0,0E0,0E0,0E0,0E0,0E0],"parents":[2147483647,0,0,1,1,2,2,3,3,5,5,6,6,7,7,9,9,10,10],"right_children":[2,4,6,8,-1,10,12,14,-1,16,18,-1,-1,-1,-1,-1,-1,-1,-1],"split_conditions":[3.815E2,3.0157085E1,3.74E2,1.7673898E2,-2.698751E-1,5.505E2,4.145489E2,3.13E2,-2.6315498E-1,7.835E2,2.0610654E2,-8.691306E-2,-2.6171547E-1,-5.4539558E-2,-2.2569738E-1,2.262697E-1,-1.2614688E-1,-2.571256E-1,-7.32476E-2],"split_indices":[16,19,17,17,0,20,12,4,0,2,18,0,0,0,0,0,0,0,0],"split_type":[0,0,0,0,0,0,0,0,0,0,0,0,0,0,0,0,0,0,0],"sum_hessian":[3.3300082E2,2.8597955E2,4.702125E1,1.5168703E2,1.3429253E2,2.8811417E1,1.8209835E1,9.157198E1,6.0115047E1,1.7730362E1,1.1081056E1,1.3758724E0,1.6833963E1,1.7996744E1,7.357524E1,1.29440565E1,4.786305E0,9.914969E0,1.1660862E0],"tree_param":{"num_deleted":"0","num_feature":"22","num_nodes":"19","size_leaf_vector":"0"}},{"base_weights":[-1.2646302E0,-1.4095868E0,2.794785E-1,-1.5030081E0,-1.179935E0,8.5900724E-1,-1.3909765E0,1.4276153E-1,-1.472817E0,-8.425434E-2,1.432258E0,-1.181597E0,9.5592827E-1,-1.5032059E0,-2.1888764E-1,9.717237E-1,-1.18274E0],"categories":[],"categories_nodes":[],"categories_segments":[],"categories_sizes":[],"default_left":[1,1,1,0,1,1,0,1,1,1,0,0,0,0,0,0,0],"id":29,"left_children":[1,3,5,-1,7,9,-1,11,13,15,-1,-1,-1,-1,-1,-1,-1],"loss_changes":[7.470709E1,4.7418213E0,2.958636E1,0E0,3.6031067E1,1.22286E1,0E0,2.016358E1,2.5590668E0,1.2063231E1,0E0,0E0,0E0,0E0,0E0,0E0,0E0],"parents":[2147483647,0,0,1,1,2,2,4,4,5,5,7,7,8,8,9,9],"right_children":[2,4,6,-1,8,10,-1,12,14,16,-1,-1,-1,-1,-1,-1,-1],"split_conditions":[4.0096695E2,1.4629428E2,4.415E2,-2.7054146E-1,2.3139278E2,1.0295E3,-2.5037578E-1,3.17E2,1.0797635E3,3.45E2,2.5780645E-1,-2.1268746E-1,1.7206709E-1,-2.7057707E-1,-3.9399777E-2,1.7491026E-1,-2.128932E-1],"split_indices":[21,21,20,0,20,18,0,17,18,1,0,0,0,0,0,0,0],"split_type":[0,0,0,0,0,0,0,0,0,0,0,0,0,0,0,0,0],"sum_hessian":[3.3100897E2,3.026812E2,2.832774E1,2.1121509E2,9.146613E1,2.1392004E1,6.935735E0,1.6674461E1,7.479167E1,8.408754E0,1.2983251E1,6.1710086E0,1.0503452E1,7.2827896E1,1.9637734E0,4.3461666E0,4.0625877E0],"tree_param":{"num_deleted":"0","num_feature":"22","num_nodes":"17","size_leaf_vector":"0"}},{"base_weights":[-1.2570182E0,3.2329422E-3,-1.3514141E0,-8.1349874E-1,9.834743E-1,-1.3963426E0,1.2105751E0,-1.0708195E0,5.10356E-1,1.2950006E0,-9.2550915E-1,-1.4709052E0,-1.0211455E0,-1.227164E0,-1.6701794E-1,1.5509208E0,4.498194E-1,1.1488761E-1,-1.4813694E0,9.504291E-2,-1.3993495E0],"categories":[],"categories_nodes":[],"categories_segments":[],"categories_sizes":[],"default_left":[1,1,1,1,1,1,0,1,0,1,0,1,1,0,0,0,0,0,0,0,0],"id":30,"left_children":[1,3,5,7,9,11,-1,13,-1,15,-1,17,19,-1,-1,-1,-1,-1,-1,-1,-1],"loss_changes":[3.9832275E1,2.0276155E1,3.7542175E1,5.25354E0,8.04319E0,7.074402E0,0E0,1.4753895E0,0E0,1.5327415E0,0E0,4.3762207E0,2.2968395E1,0E0,0E0,0E0,0E0,0E0,0E0,0E0,0E0],"parents":[2147483647,0,0,1,1,2,2,3,3,4,4,5,5,7,7,9,9,11,11,12,12],"right_children":[2,4,6,8,10,12,-1,14,-1,16,-1,18,20,-1,-1,-1,-1,-1,-1,-1,-1],"split_conditions":[3.517364E1,2.105E2,5.7202527E2,5.05E2,6.905E2,3.9139014E2,2.1790352E-1,5.0267654E2,9.186409E-2,3.645E2,-1.6659166E-1,5.7930176E1,4.09E2,-2.2088954E-1,-3.006323E-2,2.7916577E-1,8.096749E-2,2.067977E-2,-2.666465E-1,1.7107723E-2,-2.518829E-1],"split_indices":[0,19,1,20,8,1,0,13,0,21,0,2,11,0,0,0,0,0,0,0,0],"split_type":[0,0,0,0,0,0,0,0,0,0,0,0,0,0,0,0,0,0,0,0,0],"sum_hessian":[3.337941E2,2.3327059E1,3.1046704E2,1.2817605E1,1.0509454E1,3.0556348E2,4.9035597E0,1.0891695E1,1.9259094E0,9.311536E0,1.1979179E0,2.5247E2,5.309348E1,8.980432E0,1.9112642E0,6.5063896E0,2.805146E0,1.589645E0,2.5088036E2,1.3626491E1,3.9466988E1],"tree_param":{"num_deleted":"0","num_feature":"22","num_nodes":"21","size_leaf_vector":"0"}},{"base_weights":[-1.2611364E0,-9.4843644E-1,-1.4908818E0,-1.1981332E0,4.6187243E-1,-1.00965455E-1,-1.3976399E0,-1.2167659E0,1.1589851E0,-1.1348953E0,1.3051903E0,-1.447201E0,-4.341306E-2,-3.7073696E-1,-1.3189409E0,1.3379761E0,-2.8344566E-1],"categories":[],"categories_nodes":[],"categories_segments":[],"categories_sizes":[],"default_left":[1,1,0,1,1,1,1,1,1,0,0,0,0,0,0,0,0],"id":31,"left_children":[1,3,-1,5,7,9,11,13,15,-1,-1,-1,-1,-1,-1,-1,-1],"loss_changes":[2.2446777E1,5.105806E1,0E0,2.6590805E1,2.7499393E1,3.0366426E1,6.867401E0,1.1869049E-1,4.5785522E0,0E0,0E0,0E0,0E0,0E0,0E0,0E0,0E0],"parents":[2147483647,0,0,1,1,3,3,4,4,5,5,6,6,7,7,8,8],"right_children":[2,4,-1,6,8,10,12,14,16,-1,-1,-1,-1,-1,-1,-1,-1],"split_conditions":[5.9481165E2,3.248014E2,-2.6835874E-1,2.535E2,8.7E1,1.0262984E2,5.54E2,5.285E2,4.3760077E2,-2.0428117E-1,2.3493427E-1,-2.604962E-1,-7.8143515E-3,-6.673265E-2,-2.3740937E-1,2.4083571E-1,-5.102022E-2],"split_indices":[2,3,0,6,16,7,8,13,9,0,0,0,0,0,0,0,0],"split_type":[0,0,0,0,0,0,0,0,0,0,0,0,0,0,0,0,0],"sum_hessian":[3.3113147E2,1.4241826E2,1.8871321E2,1.2112362E2,2.129463E1,1.886783E1,1.0225579E2,6.0297165E0,1.5264914E1,1.0984192E1,7.883639E0,9.8579384E1,3.676405E0,1.1484847E0,4.881232E0,1.3644221E1,1.6206927E0],"tree_param":{"num_deleted":"0","num_feature":"22","num_nodes":"17","size_leaf_vector":"0"}},{"base_weights":[-1.2809069E0,-1.4049323E0,-5.602919E-1,-8.890901E-1,-1.4808546E0,7.960697E-1,-1.2036089E0,-1.3645122E0,3.770561E-1,-4.55498E-1,1.450946E0,-1.1800503E-1,-1.315735E0,-1.4869256E0,-9.05146E-1,-7.4105686E-1,1.3232578E0,-1.1694857E0,8.188165E-1,1.5784622E0,1.707285E-1,-1.0092944E0,7.8120744E-1,6.508534E-2,-1.3841338E0],"categories":[],"categories_nodes":[],"categories_segments":[],"categories_sizes":[],"default_left":[1,1,1,1,0,1,1,1,1,1,1,1,1,0,0,0,0,0,0,0,0,0,0,0,0],"id":32,"left_children":[1,3,5,7,-1,9,11,13,15,17,19,21,23,-1,-1,-1,-1,-1,-1,-1,-1,-1,-1,-1,-1],"loss_changes":[2.8971924E1,9.78302E0,4.5071854E1,2.3908804E1,0E0,1.4484885E1,4.067333E0,2.5512695E-1,1.3033714E1,6.9214077E0,1.5771065E0,4.2716246E0,3.0503922E0,0E0,0E0,0E0,0E0,0E0,0E0,0E0,0E0,0E0,0E0,0E0,0E0],"parents":[2147483647,0,0,1,1,2,2,3,3,5,5,6,6,7,7,8,8,9,9,10,10,11,11,12,12],"right_children":[2,4,6,8,-1,10,12,14,16,18,20,22,24,-1,-1,-1,-1,-1,-1,-1,-1,-1,-1,-1,-1],"split_conditions":[7.2615735E2,1.855E2,7.866815E2,2.21E2,-2.6655385E-1,3.265E2,7.835E2,1.865777E2,3.5E2,9.7998706E2,7.789184E2,8.1918225E2,3.806785E2,-2.676466E-1,-1.6292629E-1,-1.3339023E-1,2.3818642E-1,-2.1050744E-1,1.4738697E-1,2.841232E-1,3.0731132E-2,-1.8167299E-1,1.4061734E-1,1.1715361E-2,-2.4914409E-1],"split_indices":[4,12,6,13,0,1,10,15,0,14,6,0,11,0,0,0,0,0,0,0,0,0,0,0,0],"split_type":[0,0,0,0,0,0,0,0,0,0,0,0,0,0,0,0,0,0,0,0,0,0,0,0,0],"sum_hessian":[3.3197012E2,2.824141E2,4.955603E1,3.7863953E1,2.4455014E2,1.5866293E1,3.368974E1,2.747118E1,1.0392774E1,5.554759E0,1.0311534E1,3.3460217E0,3.0343716E1,1.9924679E1,7.5465E0,4.863021E0,5.5297527E0,3.6128004E0,1.9419588E0,9.165626E0,1.1459075E0,1.618933E0,1.7270887E0,1.4344201E0,2.8909296E1],"tree_param":{"num_deleted":"0","num_feature":"22","num_nodes":"25","size_leaf_vector":"0"}},{"base_weights":[-1.2677573E0,-1.4639236E0,-1.0349737E0,-1.4872729E0,-9.6707314E-1,-4.808456E-1,-1.4734992E0,1.0357813E0,-1.3834229E0,4.9863112E-1,-8.127552E-1,-1.4897068E0,-4.3023378E-1,-1.4950283E0,1.1624235E0,-1.255597E0,-8.605005E-2],"categories":[],"categories_nodes":[],"categories_segments":[],"categories_sizes":[],"default_left":[1,1,1,0,1,1,1,0,0,1,1,0,0,0,0,0,0],"id":33,"left_children":[1,3,5,-1,7,9,11,-1,-1,13,15,-1,-1,-1,-1,-1,-1],"loss_changes":[1.3770386E1,6.411133E-1,3.731935E1,0E0,1.052596E1,2.3363276E1,8.2803345E-1,0E0,0E0,2.621139E1,1.6988567E1,0E0,0E0,0E0,0E0,0E0,0E0],"parents":[2147483647,0,0,1,1,2,2,4,4,5,5,6,6,9,9,10,10],"right_children":[2,4,6,-1,8,10,12,-1,-1,14,16,-1,-1,-1,-1,-1,-1],"split_conditions":[1.4184555E2,4.3918262E2,5.3967865E1,-2.6770914E-1,3.918341E2,1.4508368E2,7.065E2,1.8644063E-1,-2.4901612E-1,2.49E2,3.4447058E2,-2.6814723E-1,-7.744208E-2,-2.691051E-1,2.0923623E-1,-2.2600746E-1,-1.5489009E-2],"split_indices":[20,9,18,0,1,7,19,0,0,6,9,0,0,0,0,0,0],"split_type":[0,0,0,0,0,0,0,0,0,0,0,0,0,0,0,0,0],"sum_hessian":[3.337366E2,1.7824284E2,1.5549376E2,1.6833846E2,9.904388E0,6.961879E1,8.587497E1,1.4485167E0,8.455872E0,1.7493263E1,5.2125526E1,8.41399E1,1.73507E0,4.056765E0,1.3436498E1,3.1936298E1,2.0189226E1],"tree_param":{"num_deleted":"0","num_feature":"22","num_nodes":"17","size_leaf_vector":"0"}},{"base_weights":[-1.2478685E0,-1.3277482E0,-2.511308E-1,-1.1571101E0,-1.4905396E0,8.2833767E-1,-1.3119888E0,-1.3003846E0,5.8913296E-1,-1.5013151E0,-4.0198708E-1,1.2567897E0,-1.053564E0,-1.4180175E0,-1.217298E-1,-1.4356848E0,-6.971347E-1,1.4764408E0,-1.21636E0,-1.5075128E0,-3.574543E-1,5.201964E-1,1.4929808E0],"categories":[],"categories_nodes":[],"categories_segments":[],"categories_sizes":[],"default_left":[1,1,1,1,1,1,1,1,1,1,0,1,0,0,0,0,0,0,0,0,0,0,0],"id":34,"left_children":[1,3,5,7,9,11,13,15,17,19,-1,21,-1,-1,-1,-1,-1,-1,-1,-1,-1,-1,-1],"loss_changes":[2.6477417E1,6.928833E0,3.1110287E1,3.99377E1,1.2258301E0,1.2296176E1,1.5449677E0,1.0834488E1,2.1917322E1,5.533142E-1,0E0,1.2311001E0,0E0,0E0,0E0,0E0,0E0,0E0,0E0,0E0,0E0,0E0,0E0],"parents":[2147483647,0,0,1,1,2,2,3,3,4,4,5,5,6,6,7,7,8,8,9,9,11,11],"right_children":[2,4,6,8,10,12,14,16,18,20,-1,22,-1,-1,-1,-1,-1,-1,-1,-1,-1,-1,-1],"split_conditions":[4.395E2,3.5448942E0,5.8E1,1.0295E3,7.0577637E2,5.725E2,9.03E2,4.0277478E2,7.877283E2,6.06E2,-7.235768E-2,4.71E2,-1.8964152E-1,-2.5524315E-1,-2.1911364E-2,-2.5842327E-1,-1.2548424E-1,2.6575935E-1,-2.189448E-1,-2.7135232E-1,-6.4341776E-2,9.363535E-2,2.6873657E-1],"split_indices":[7,20,20,14,21,1,20,18,0,13,0,14,0,0,0,0,0,0,0,0,0,0,0],"split_type":[0,0,0,0,0,0,0,0,0,0,0,0,0,0,0,0,0,0,0,0,0,0,0],"sum_hessian":[3.3574E2,3.105223E2,2.5217684E1,1.5556595E2,1.5495636E2,1.2607844E1,1.260984E1,1.4400597E2,1.15599785E1,1.5306201E2,1.8943522E0,1.0540306E1,2.067538E0,1.1402729E1,1.2071111E0,1.164974E2,2.7508574E1,7.873034E0,3.6869445E0,1.5192096E2,1.1410472E0,3.3367252E0,7.2035813E0],"tree_param":{"num_deleted":"0","num_feature":"22","num_nodes":"23","size_leaf_vector":"0"}},{"base_weights":[-1.2558591E0,-1.4433534E0,-9.417015E-1,-1.5028619E0,-1.1850791E0,1.4762819E-1,-1.3282213E0,-1.5078973E0,-4.2434892E-1,-5.1971693E-3,-1.4411402E0,-7.428115E-1,1.1175455E0,-1.4440668E0,-8.689271E-1,1.4638486E0,-1.2412184E0,4.1622713E-2,-1.4924918E0,-1.1509916E0,1.2680623E-1,1.4976871E0,-1.0694685E0,-4.9042818E-1,-1.4656132E0,-1.3648987E0,-2.1951209E-1],"categories":[],"categories_nodes":[],"categories_segments":[],"categories_sizes":[],"default_left":[1,1,1,1,1,1,1,0,0,1,1,1,1,1,1,0,0,0,0,0,0,0,0,0,0,0,0],"id":35,"left_children":[1,3,5,7,9,11,13,-1,-1,15,17,19,21,23,25,-1,-1,-1,-1,-1,-1,-1,-1,-1,-1,-1,-1],"loss_changes":[1.8300842E1,1.40271E0,5.3932472E1,2.5421143E-1,1.3140736E1,3.0474699E1,3.76268E0,0E0,0E0,1.7730663E1,2.7846375E0,6.7113895E0,1.559244E1,7.975464E-1,6.6269703E0,0E0,0E0,0E0,0E0,0E0,0E0,0E0,0E0,0E0,0E0,0E0,0E0],"parents":[2147483647,0,0,1,1,2,2,3,3,4,4,5,5,6,6,9,9,10,10,11,11,12,12,13,13,14,14],"right_children":[2,4,6,8,10,12,14,-1,-1,16,18,20,22,24,26,-1,-1,-1,-1,-1,-1,-1,-1,-1,-1,-1,-1],"split_conditions":[1.26995255E2,3.668819E2,2.674096E2,7.38E2,5.765E2,8.75E1,4.8598227E2,-2.7142152E-1,-7.638281E-2,3.42E2,2.848753E2,3.56E2,2.715E2,1.9404234E2,2.5344711E2,2.6349276E-1,-2.2341932E-1,7.4920887E-3,-2.6864854E-1,-2.0717849E-1,2.2825122E-2,2.695837E-1,-1.9250433E-1,-8.827708E-2,-2.638104E-1,-2.4568178E-1,-3.9512176E-2],"split_indices":[21,7,17,16,4,16,20,0,0,1,3,21,5,8,19,0,0,0,0,0,0,0,0,0,0,0,0],"split_type":[0,0,0,0,0,0,0,0,0,0,0,0,0,0,0,0,0,0,0,0,0,0,0,0,0,0,0],"sum_hessian":[3.327714E2,2.0614592E2,1.26625465E2,1.6362627E2,4.2519653E1,3.332464E1,9.330083E1,1.6246959E2,1.1566713E0,7.7641554E0,3.47555E1,1.7496237E1,1.5828399E1,7.2795815E1,2.0505014E1,3.4634387E0,4.3007164E0,1.1697196E0,3.358578E1,1.1687033E1,5.8092046E0,1.3753065E1,2.0753338E0,2.1334136E0,7.06624E1,1.1001334E1,9.503681E0],"tree_param":{"num_deleted":"0","num_feature":"22","num_nodes":"27","size_leaf_vector":"0"}},{"base_weights":[-1.2610669E0,-1.0406199E0,-1.4795866E0,-7.3899E-1,-1.4409206E0,-1.5061558E0,-3.2492864E-1,-1.1878393E0,3.565039E-1,-1.4942659E0,-8.507451E-1,-9.405296E-1,8.9416534E-1,-9.579246E-2,-1.3852553E0,9.0149546E-1,-1.4084328E0,1.1220901E0,-1.3584093E0],"categories":[],"categories_nodes":[],"categories_segments":[],"categories_sizes":[],"default_left":[1,1,1,1,1,0,1,1,1,0,1,0,0,0,0,0,0,0,0],"id":36,"left_children":[1,3,5,7,9,-1,11,13,15,-1,17,-1,-1,-1,-1,-1,-1,-1,-1],"loss_changes":[1.4581421E1,1.9457153E1,4.5937805E0,4.909357E1,9.950104E-1,0E0,4.594865E0,1.5054138E1,2.9680689E1,0E0,9.826155E0,0E0,0E0,0E0,0E0,0E0,0E0,0E0,0E0],"parents":[2147483647,0,0,1,1,2,2,3,3,4,4,6,6,7,7,8,8,10,10],"right_children":[2,4,6,8,10,-1,12,14,16,-1,18,-1,-1,-1,-1,-1,-1,-1,-1],"split_conditions":[1.906974E1,6.751577E2,6.835E2,7.8792786E2,9.565E2,-2.7110806E-1,5.985E2,9.1270325E1,3.52E2,-2.6896787E-1,8.075115E2,-1.6929533E-1,1.6094977E-1,-1.7242642E-2,-2.4934597E-1,1.6226919E-1,-2.5351793E-1,2.0197622E-1,-2.4451368E-1],"split_indices":[20,2,21,10,10,0,20,3,1,0,2,0,0,0,0,0,0,0,0],"split_type":[0,0,0,0,0,0,0,0,0,0,0,0,0,0,0,0,0,0,0],"sum_hessian":[3.3365695E2,1.6896436E2,1.6469261E2,9.798099E1,7.098336E1,1.6069061E2,4.001997E0,6.944391E1,2.8537075E1,6.3694214E1,7.289151E0,2.8110259E0,1.1909711E0,1.0859215E1,5.8584698E1,2.2177992E1,6.3590827E0,1.2441103E0,6.045041E0],"tree_param":{"num_deleted":"0","num_feature":"22","num_nodes":"19","size_leaf_vector":"0"}},{"base_weights":[-1.2513274E0,-1.3905892E0,-7.723562E-1,-6.187554E-1,-1.4630485E0,-2.6914218E-2,-1.4411331E0,1.5833695E-1,-1.4545883E0,-1.470903E0,-5.7564896E-1,8.6738616E-1,-1.1466115E0,-1.4856923E0,-5.9784937E-1,-1.1954985E0,9.945851E-1,1.232718E-1,-9.308823E-1,1.4261003E0,-1.4517953E0,-1.4271842E0,5.3807837E-1,7.0050575E-2,-9.260651E-1],"categories":[],"categories_nodes":[],"categories_segments":[],"categories_sizes":[],"default_left":[1,1,1,1,1,1,1,1,0,0,1,1,1,0,1,0,0,0,0,0,0,0,0,0,0],"id":37,"left_children":[1,3,5,7,9,11,13,15,-1,-1,17,19,21,-1,23,-1,-1,-1,-1,-1,-1,-1,-1,-1,-1],"loss_changes":[2.1288452E1,1.3551086E1,3.8731556E1,1.5764838E1,7.9525757E-1,3.8840847E1,6.513901E-1,1.6241785E1,0E0,0E0,1.0358235E0,3.0035454E1,8.904358E0,0E0,8.824873E-1,0E0,0E0,0E0,0E0,0E0,0E0,0E0,0E0,0E0,0E0],"parents":[2147483647,0,0,1,1,2,2,3,3,4,4,5,5,6,6,7,7,10,10,11,11,12,12,14,14],"right_children":[2,4,6,8,10,12,14,16,-1,-1,18,20,22,-1,24,-1,-1,-1,-1,-1,-1,-1,-1,-1,-1],"split_conditions":[7.493008E2,8.091281E1,2.925E2,7.6E1,5.95E2,4.7806244E2,7.09E2,1.7496118E2,-2.618259E-1,-2.6476255E-1,6.13E2,1.0125E3,5.015E2,-2.674246E-1,4.755E2,-2.1518973E-1,1.7902532E-1,2.2188924E-2,-1.6755882E-1,2.5669804E-1,-2.6132318E-1,-2.5689316E-1,9.685411E-2,1.2609104E-2,-1.6669172E-1],"split_indices":[2,5,5,18,11,12,15,8,0,0,11,14,13,0,1,0,0,0,0,0,0,0,0,0,0],"split_type":[0,0,0,0,0,0,0,0,0,0,0,0,0,0,0,0,0,0,0,0,0,0,0,0,0],"sum_hessian":[3.3425726E2,2.5748862E2,7.6768654E1,2.291695E1,2.3457166E2,3.6795433E1,3.997322E1,1.229582E1,1.0621131E1,2.3186185E2,2.7098122E0,2.0581978E1,1.6213453E1,3.724348E1,2.72974E0,4.5309258E0,7.764894E0,1.1332092E0,1.5766029E0,1.689652E1,3.6854565E0,1.4029752E1,2.1837027E0,1.158609E0,1.5711309E0],"tree_param":{"num_deleted":"0","num_feature":"22","num_nodes":"25","size_leaf_vector":"0"}},{"base_weights":[-1.262258E0,-1.4531678E0,-3.3019042E-1,-1.5138563E0,-1.2449656E0,2.0481841E-1,-1.3744377E0,-1.8098624E-1,-1.4162631E0,-1.2061852E0,6.6576785E-1,-5.875776E-1,-1.4489701E0,-1.308579E0,1.0046314E0,-7.405304E-1,-1.4622309E0,-6.431404E-2,-1.4774363E0,1.288649E0,-5.513658E-1,-9.0915704E-1,1.5604867E-3],"categories":[],"categories_nodes":[],"categories_segments":[],"categories_sizes":[],"default_left":[1,1,1,0,1,1,1,1,1,1,1,1,0,0,0,0,0,0,0,0,0,0,0],"id":38,"left_children":[1,3,5,-1,7,9,11,13,15,17,19,21,-1,-1,-1,-1,-1,-1,-1,-1,-1,-1,-1],"loss_changes":[5.8826355E1,1.6069336E0,3.2659706E1,0E0,1.2136986E1,2.6293253E1,3.0765915E-1,1.5453683E1,7.319031E-1,3.0042305E0,2.3594917E1,6.440759E-1,0E0,0E0,0E0,0E0,0E0,0E0,0E0,0E0,0E0,0E0,0E0],"parents":[2147483647,0,0,1,1,2,2,4,4,5,5,6,6,7,7,8,8,9,9,10,10,11,11],"right_children":[2,4,6,-1,8,10,12,14,16,18,20,22,-1,-1,-1,-1,-1,-1,-1,-1,-1,-1,-1],"split_conditions":[8.855E2,1.6789276E2,6.635E2,-2.7249414E-1,1.56E2,2.2544446E2,5.015E2,5.515E2,2.765E2,5.677602E2,2.185E2,2.69E2,-2.6081464E-1,-2.3554422E-1,1.8083365E-1,-1.3329548E-1,-2.6320156E-1,-1.1576527E-2,-2.6593855E-1,2.3195682E-1,-9.9245846E-2,-1.6364828E-1,2.8088762E-4],"split_indices":[18,21,17,0,20,20,8,14,20,4,16,1,0,0,0,0,0,0,0,0,0,0,0],"split_type":[0,0,0,0,0,0,0,0,0,0,0,0,0,0,0,0,0,0,0,0,0,0,0],"sum_hessian":[3.3229153E2,2.7533688E2,5.695466E1,2.0833778E2,6.699909E1,3.8191513E1,1.876315E1,9.57604E0,5.742305E1,9.006166E0,2.9185345E1,2.3921413E0,1.6371008E1,4.8549676E0,4.7210727E0,4.7472715E0,5.2675777E1,1.9662123E0,7.039954E0,1.9266666E1,9.918679E0,1.1960707E0,1.1960707E0],"tree_param":{"num_deleted":"0","num_feature":"22","num_nodes":"23","size_leaf_vector":"0"}},{"base_weights":[-1.1421043E0,-8.9722055E-1,-1.3832723E0,-1.2057983E0,-2.9356304E-1,-1.3932918E0,-5.8033985E-1,-9.5318466E-1,-1.3474603E0,1.0992509E0,-9.925468E-1,2.591779E-2,-8.6324525E-1,-1.2261422E0,2.4210013E-1,-1.3587146E0,-4.0344638E-1,1.3242993E0,-8.6559194E-1,-1.2673626E0,1.255251E0],"categories":[],"categories_nodes":[],"categories_segments":[],"categories_sizes":[],"default_left":[1,1,1,1,1,0,1,1,1,1,1,0,0,0,0,0,0,0,0,0,0],"id":39,"left_children":[1,3,5,7,9,-1,11,13,15,17,19,-1,-1,-1,-1,-1,-1,-1,-1,-1,-1],"loss_changes":[1.679895E1,2.8408699E1,4.1467285E-1,2.3606262E0,5.322804E1,0E0,6.377479E-1,1.3351967E1,1.1948395E-1,9.269039E0,2.3942604E1,0E0,0E0,0E0,0E0,0E0,0E0,0E0,0E0,0E0,0E0],"parents":[2147483647,0,0,1,1,2,2,3,3,4,4,6,6,7,7,8,8,9,9,10,10],"right_children":[2,4,6,8,10,-1,12,14,16,18,20,-1,-1,-1,-1,-1,-1,-1,-1,-1,-1],"split_conditions":[3.5448942E0,1.2948863E2,7.025E2,3.9013434E2,8.6939316E1,-2.5079253E-1,7.325E2,2.99E2,4.9394592E2,6.32E2,4.6444464E2,4.6652025E-3,-1.5538415E-1,-2.207056E-1,4.3578025E-2,-2.4456863E-1,-7.262035E-2,2.3837389E-1,-1.5580656E-1,-2.2812527E-1,2.259452E-1],"split_indices":[20,18,21,11,19,0,0,9,9,18,9,0,0,0,0,0,0,0,0,0,0],"split_type":[0,0,0,0,0,0,0,0,0,0,0,0,0,0,0,0,0,0,0,0,0],"sum_hessian":[3.0446246E2,1.5340958E2,1.5105289E2,1.0085634E2,5.255323E1,1.4846498E2,2.5879061E0,3.9014233E1,6.184211E1,1.736955E1,3.5183678E1,1.1124173E0,1.4754889E0,3.1740171E1,7.2740607E0,6.0679405E1,1.1627039E0,1.5877036E1,1.4925153E0,3.1739395E1,3.444282E0],"tree_param":{"num_deleted":"0","num_feature":"22","num_nodes":"21","size_leaf_vector":"0"}},{"base_weights":[-1.1567253E0,-1.229045E0,6.94975E-1,-1.2812078E0,-6.58503E-1,1.0778278E0,-1.0644969E0,-1.2978423E0,7.037523E-1,2.7101377E-1,-1.3694426E0,-3.852626E-1,1.3030379E0,-1.3923117E0,-9.9613893E-1,9.950123E-1,-1.144891E0],"categories":[],"categories_nodes":[],"categories_segments":[],"categories_sizes":[],"default_left":[1,1,1,1,1,1,0,1,0,1,0,0,0,0,0,0,0],"id":40,"left_children":[1,3,5,7,9,11,-1,13,-1,15,-1,-1,-1,-1,-1,-1,-1],"loss_changes":[4.1595398E1,7.881073E0,9.280794E0,9.747314E0,1.7959042E1,3.9332476E0,0E0,6.1851807E0,0E0,1.3818925E1,0E0,0E0,0E0,0E0,0E0,0E0,0E0],"parents":[2147483647,0,0,1,1,2,2,3,3,4,4,5,5,7,7,9,9],"right_children":[2,4,6,8,10,12,-1,14,-1,16,-1,-1,-1,-1,-1,-1,-1],"split_conditions":[5.6458765E2,8.235E2,2.78E2,6.2E2,4.665E2,4.06E2,-1.9160944E-1,3.615547E2,1.2667541E-1,9.47E2,-2.4649967E-1,-6.934727E-2,2.3454683E-1,-2.506161E-1,-1.7930502E-1,1.7910221E-1,-2.0608039E-1],"split_indices":[16,6,17,11,13,11,0,20,0,14,0,0,0,0,0,0,0],"split_type":[0,0,0,0,0,0,0,0,0,0,0,0,0,0,0,0,0],"sum_hessian":[3.0323343E2,2.9215918E2,1.10742655E1,2.665443E2,2.561486E1,9.413374E0,1.6608915E0,2.6467245E2,1.8718626E0,1.136912E1,1.4245741E1,1.1608915E0,8.252481E0,1.9880705E2,6.586539E1,7.719266E0,3.6498532E0],"tree_param":{"num_deleted":"0","num_feature":"22","num_nodes":"17","size_leaf_vector":"0"}},{"base_weights":[-1.1411455E0,-1.2336011E0,-5.701685E-1,-1.0972899E0,-1.3686023E0,-1.0141831E-1,-1.304951E0,-6.816144E-1,-1.1967341E0,-8.416958E-1,1.0065676E0,-1.373165E0,-1.253246E-1,-1.3775183E0,3.749387E-1,-1.3543638E0,-1.0543463E0,3.446921E-1,-9.9293095E-1,1.36523E0,-8.7471867E-1],"categories":[],"categories_nodes":[],"categories_segments":[],"categories_sizes":[],"default_left":[1,1,1,1,0,1,1,1,1,1,1,0,0,0,0,0,0,0,0,0,0],"id":41,"left_children":[1,3,5,7,-1,9,11,13,15,17,19,-1,-1,-1,-1,-1,-1,-1,-1,-1,-1],"loss_changes":[1.5496796E1,3.3426514E0,1.52381E1,4.807495E0,0E0,2.4083393E1,1.2197151E0,2.1533798E1,1.0061646E0,3.4870615E0,9.157562E0,0E0,0E0,0E0,0E0,0E0,0E0,0E0,0E0,0E0,0E0],"parents":[2147483647,0,0,1,1,2,2,3,3,5,5,6,6,7,7,8,8,9,9,10,10],"right_children":[2,4,6,8,-1,10,12,14,16,18,20,-1,-1,-1,-1,-1,-1,-1,-1,-1,-1],"split_conditions":[3.815E2,1E1,2.6196667E2,2.275E2,-2.4634843E-1,8.1E2,4.2940265E2,1.9280695E2,5.6864294E2,4.06E2,1.047E3,-2.4716972E-1,-2.255843E-2,-2.4795331E-1,6.748897E-2,-2.437855E-1,-1.8978235E-1,6.2044583E-2,-1.7872758E-1,2.457414E-1,-1.5744936E-1],"split_indices":[16,19,15,11,0,14,1,11,2,16,14,0,0,0,0,0,0,0,0,0,0],"split_type":[0,0,0,0,0,0,0,0,0,0,0,0,0,0,0,0,0,0,0,0,0],"sum_hessian":[3.0587842E2,2.6225256E2,4.362583E1,1.3503519E2,1.27217384E2,2.732929E1,1.629654E1,2.7584896E1,1.07450294E2,1.6527275E1,1.0802015E1,1.5250578E1,1.0459608E0,1.6447731E1,1.1137164E1,4.6956028E1,6.0494263E1,1.7239892E0,1.4803287E1,9.302775E0,1.4992399E0],"tree_param":{"num_deleted":"0","num_feature":"22","num_nodes":"21","size_leaf_vector":"0"}},{"base_weights":[-1.1529907E0,-1.28809E0,2.457916E-1,-1.3093804E0,-4.683571E-1,7.6539475E-1,-1.264658E0,-1.3829255E0,-1.1229228E0,6.5714514E-1,-1.2097431E0,-7.675E-2,1.3089508E0,6.5319455E-1,-1.3185859E0,-4.462267E-1,1.2416365E0,8.3213526E-1,-1.055102E0],"categories":[],"categories_nodes":[],"categories_segments":[],"categories_sizes":[],"default_left":[1,1,1,1,1,1,0,0,1,1,0,1,0,0,0,0,0,0,0],"id":42,"left_children":[1,3,5,7,9,11,-1,-1,13,15,-1,17,-1,-1,-1,-1,-1,-1,-1],"loss_changes":[5.7430695E1,4.199707E0,2.2519001E1,2.1253357E0,7.9194098E0,9.737967E0,0E0,0E0,2.9077324E1,3.1586363E0,0E0,9.061606E0,0E0,0E0,0E0,0E0,0E0,0E0,0E0],"parents":[2147483647,0,0,1,1,2,2,3,3,4,4,5,5,8,8,9,9,11,11],"right_children":[2,4,6,8,10,12,-1,-1,14,16,-1,18,-1,-1,-1,-1,-1,-1,-1],"split_conditions":[4.0096695E2,1.065E3,4.415E2,1.4629428E2,7.195E2,1.0295E3,-2.2763844E-1,-2.489266E-1,1.27E2,2.478594E2,-2.1775377E-1,3.45E2,2.3561116E-1,1.1757502E-1,-2.3734547E-1,-8.0320805E-2,2.2349457E-1,1.4978436E-1,-1.8991837E-1],"split_indices":[21,18,20,21,2,18,0,0,20,1,0,1,0,0,0,0,0,0,0],"split_type":[0,0,0,0,0,0,0,0,0,0,0,0,0,0,0,0,0,0,0],"sum_hessian":[3.0123196E2,2.747726E2,2.645935E1,2.6723453E2,7.5380664E0,2.0053946E1,6.405404E0,1.8704211E2,8.019243E1,3.0386705E0,4.4993963E0,8.20325E0,1.1850697E1,7.7255917E0,7.246684E1,1.1341804E0,1.9044901E0,4.330077E0,3.8731725E0],"tree_param":{"num_deleted":"0","num_feature":"22","num_nodes":"19","size_leaf_vector":"0"}},{"base_weights":[-1.1330098E0,-1.1913399E0,5.934015E-1,9.7965814E-2,-1.2547084E0,-3.3568123E-1,1.3972507E0,-3.5477197E-1,9.730157E-1,-1.3348137E0,-8.745678E-1,-9.6205425E-1,8.711058E-1,3.5896307E-1,-1.1831564E0,1.6097245E-1,1.2100015E0,-8.0915965E-2,-1.356703E0,-1.2507153E0,4.663962E-2,-3.1018278E-1,-1.0854111E0],"categories":[],"categories_nodes":[],"categories_segments":[],"categories_sizes":[],"default_left":[1,1,1,1,1,1,0,1,1,1,1,1,0,0,0,0,0,0,0,0,0,0,0],"id":43,"left_children":[1,3,5,7,9,11,-1,13,15,17,19,21,-1,-1,-1,-1,-1,-1,-1,-1,-1,-1,-1],"loss_changes":[3.1694794E1,2.4469543E1,8.478617E0,6.243236E0,7.4840393E0,5.207959E0,0E0,6.658957E0,8.335357E-1,6.2787476E0,1.8197704E1,7.565737E-3,0E0,0E0,0E0,0E0,0E0,0E0,0E0,0E0,0E0,0E0,0E0],"parents":[2147483647,0,0,1,1,2,2,3,3,4,4,5,5,7,7,8,8,9,9,10,10,11,11],"right_children":[2,4,6,8,10,12,-1,14,16,18,20,22,-1,-1,-1,-1,-1,-1,-1,-1,-1,-1,-1],"split_conditions":[4.9982837E2,8.772823E0,3.95E2,4.025E2,4.3794315E2,5.4432886E2,2.5150514E-1,7.615829E1,3.5193445E2,5.7930176E1,1.056E3,5.2911743E2,1.5679905E-1,6.461336E-2,-2.1296816E-1,2.8975042E-2,2.1780027E-1,-1.4564875E-2,-2.4420656E-1,-2.2512875E-1,8.395133E-3,-5.5832904E-2,-1.95374E-1],"split_indices":[5,4,20,7,20,5,0,8,20,2,14,8,0,0,0,0,0,0,0,0,0,0,0],"split_type":[0,0,0,0,0,0,0,0,0,0,0,0,0,0,0,0,0,0,0,0,0,0,0],"sum_hessian":[3.0671957E2,2.9699496E2,9.724598E0,1.38877125E1,2.8310727E2,4.7810755E0,4.943522E0,9.544236E0,4.3434763E0,2.3175847E2,5.1348785E1,3.2809315E0,1.500144E0,5.4313025E0,4.112933E0,1.3605918E0,2.9828844E0,4.056985E0,2.2770149E2,3.6207035E1,1.514175E1,1.0813134E0,2.199618E0],"tree_param":{"num_deleted":"0","num_feature":"22","num_nodes":"23","size_leaf_vector":"0"}},{"base_weights":[-1.147319E0,-8.669631E-1,-1.3783253E0,-1.0792329E0,3.0096194E-1,-8.853681E-2,-1.2542678E0,-1.1438053E0,9.937673E-1,-1.2406127E0,1.0824602E0,-1.3229486E0,2.0385176E-1,-1.2410463E0,-2.8652668E-1,1.1657867E0,-3.339151E-1],"categories":[],"categories_nodes":[],"categories_segments":[],"categories_sizes":[],"default_left":[1,1,0,1,1,1,1,1,1,0,0,0,0,0,0,0,0],"id":44,"left_children":[1,3,-1,5,7,9,11,13,15,-1,-1,-1,-1,-1,-1,-1,-1],"loss_changes":[1.841861E1,3.491034E1,0E0,2.0397385E1,2.3395105E1,2.675136E1,1.0327652E1,2.8398705E-1,3.9441662E0,0E0,0E0,0E0,0E0,0E0,0E0,0E0,0E0],"parents":[2147483647,0,0,1,1,3,3,4,4,5,5,6,6,7,7,8,8],"right_children":[2,4,-1,6,8,10,12,14,16,-1,-1,-1,-1,-1,-1,-1,-1],"split_conditions":[6.115E2,3.248014E2,-2.4809857E-1,2.1581335E2,8.7E1,1.3438805E2,5.568484E2,4.265E2,5.4627545E2,-2.233103E-1,1.9484283E-1,-2.3813075E-1,3.669332E-2,-2.2338834E-1,-5.1574804E-2,2.0984162E-1,-6.0104724E-2],"split_indices":[2,3,0,4,16,4,8,3,11,0,0,0,0,0,0,0,0],"split_type":[0,0,0,0,0,0,0,0,0,0,0,0,0,0,0,0,0],"sum_hessian":[3.018468E2,1.3850552E2,1.6334128E2,1.1726806E2,2.123747E1,1.783394E1,9.943412E1,6.672257E0,1.4565213E1,8.95963E0,8.8743105E0,9.504976E1,4.384361E0,5.590472E0,1.081785E0,1.3002501E1,1.5627129E0],"tree_param":{"num_deleted":"0","num_feature":"22","num_nodes":"17","size_leaf_vector":"0"}},{"base_weights":[-1.1634816E0,-1.2816753E0,-4.956473E-1,-7.980956E-1,-1.3545425E0,7.0449156E-1,-1.0783622E0,-1.2356846E0,3.3821318E-1,-3.965399E-1,1.2919112E0,-6.358345E-1,-1.3781459E0,-1.2640606E0,-2.9497573E-1,-6.4572483E-1,1.2070037E0,-1.0401227E0,7.35521E-1,1.4202296E0,7.92813E-2,-1.1554298E0,1.5152808E0],"categories":[],"categories_nodes":[],"categories_segments":[],"categories_sizes":[],"default_left":[1,1,1,1,0,1,1,1,1,1,1,1,0,0,0,0,0,0,0,0,0,0,0],"id":45,"left_children":[1,3,5,7,-1,9,11,13,15,17,19,21,-1,-1,-1,-1,-1,-1,-1,-1,-1,-1,-1],"loss_changes":[2.3363678E1,7.9992065E0,3.387228E1,1.8407444E1,0E0,1.0912571E1,3.4044838E0,3.3010864E-1,1.0049169E1,5.398467E0,1.5555878E0,1.8391321E1,0E0,0E0,0E0,0E0,0E0,0E0,0E0,0E0,0E0,0E0,0E0],"parents":[2147483647,0,0,1,1,2,2,3,3,5,5,6,6,7,7,8,8,9,9,10,10,11,11],"right_children":[2,4,6,8,-1,10,12,14,16,18,20,22,-1,-1,-1,-1,-1,-1,-1,-1,-1,-1,-1],"split_conditions":[7.2615735E2,1.855E2,7.866815E2,2.21E2,-2.4381766E-1,3.265E2,8.505E2,6.91E2,3.5E2,9.7998706E2,5.624845E2,7.274237E2,-2.4806628E-1,-2.2753093E-1,-5.309563E-2,-1.1623047E-1,2.1726067E-1,-1.8722211E-1,1.3239379E-1,2.5564134E-1,1.4270634E-2,-2.0797738E-1,2.7275056E-1],"split_indices":[4,12,6,13,0,1,6,17,0,14,15,8,0,0,0,0,0,0,0,0,0,0,0],"split_type":[0,0,0,0,0,0,0,0,0,0,0,0,0,0,0,0,0,0,0,0,0,0,0],"sum_hessian":[3.0303882E2,2.566904E2,4.634841E1,3.5179016E1,2.2151138E2,1.5080392E1,3.126802E1,2.5335094E1,9.843923E0,5.3595862E0,9.720806E0,1.3888054E1,1.7379967E1,2.4259586E1,1.0755073E0,4.736459E0,5.107464E0,3.4687793E0,1.8908068E0,8.635785E0,1.0850209E0,1.1558905E1,2.329149E0],"tree_param":{"num_deleted":"0","num_feature":"22","num_nodes":"23","size_leaf_vector":"0"}},{"base_weights":[-1.1451278E0,-1.3399135E0,-9.20905E-1,-1.3625543E0,-8.659667E-1,-4.1366225E-1,-1.3494785E0,9.475334E-1,-1.2634994E0,-1.0335237E-1,-1.4358454E0,-5.0060093E-1,-1.3728677E0,-1.304015E0,2.9594326E-1,-8.654428E-1,2.0793737E-1],"categories":[],"categories_nodes":[],"categories_segments":[],"categories_sizes":[],"default_left":[1,1,1,0,1,1,1,0,0,1,0,1,0,0,0,0,0],"id":46,"left_children":[1,3,5,-1,7,9,11,-1,-1,13,-1,15,-1,-1,-1,-1,-1],"loss_changes":[1.2202972E1,5.6314087E-1,3.1228203E1,0E0,8.514435E0,2.1549261E1,8.775177E-1,0E0,0E0,2.606004E1,0E0,1.1331184E0,0E0,0E0,0E0,0E0,0E0],"parents":[2147483647,0,0,1,1,2,2,4,4,5,5,6,6,9,9,11,11],"right_children":[2,4,6,-1,8,10,12,-1,-1,14,-1,16,-1,-1,-1,-1,-1],"split_conditions":[1.4184555E2,4.3918262E2,5.3967865E1,-2.4525979E-1,3.918341E2,3.555E2,6.85E1,1.7055602E-1,-2.274299E-1,1.29E2,-2.5845218E-1,5.005E2,-2.471162E-1,-2.3472272E-1,5.326979E-2,-1.5577972E-1,3.742873E-2],"split_indices":[20,9,18,0,1,7,21,0,0,17,0,0,0,0,0,0,0],"split_type":[0,0,0,0,0,0,0,0,0,0,0,0,0,0,0,0,0],"sum_hessian":[3.066541E2,1.6143619E2,1.4521791E2,1.5228642E2,9.149767E0,6.7405106E1,7.781281E1,1.3963299E0,7.7534366E0,5.2552544E1,1.4852562E1,2.6872115E0,7.51256E1,1.2549878E1,4.0002666E1,1.6276505E0,1.0595611E0],"tree_param":{"num_deleted":"0","num_feature":"22","num_nodes":"17","size_leaf_vector":"0"}},{"base_weights":[-1.1231552E0,-1.1972579E0,-2.2371781E-1,-1.0327741E0,-1.3572183E0,7.233862E-1,-1.1753594E0,-1.1711122E0,4.4855326E-1,-1.3679338E0,-3.5875422E-1,1.105873E0,-9.68254E-1,-3.2315785E-1,-1.3497132E0,-3.201328E-1,-1.2604687E0,-9.7548324E-1,1.190034E0,-1.3862051E0,-6.4311534E-1,1.4172754E0,4.939225E-1,-8.556046E-1,4.0179566E-1],"categories":[],"categories_nodes":[],"categories_segments":[],"categories_sizes":[],"default_left":[1,1,1,1,1,1,1,1,1,1,0,1,0,1,0,0,0,0,0,0,0,0,0,0,0],"id":47,"left_children":[1,3,5,7,9,11,13,15,17,19,-1,21,-1,23,-1,-1,-1,-1,-1,-1,-1,-1,-1,-1,-1],"loss_changes":[2.0419006E1,6.136963E0,2.3251831E1,3.0330887E1,1.0293274E0,9.531363E0,1.462534E0,9.732803E0,1.5041569E1,9.6539307E-1,0E0,1.4212332E0,0E0,1.6890486E0,0E0,0E0,0E0,0E0,0E0,0E0,0E0,0E0,0E0,0E0,0E0],"parents":[2147483647,0,0,1,1,2,2,3,3,4,4,5,5,6,6,7,7,8,8,9,9,11,11,13,13],"right_children":[2,4,6,8,10,12,14,16,18,20,-1,22,-1,24,-1,-1,-1,-1,-1,-1,-1,-1,-1,-1,-1],"split_conditions":[4.395E2,3.5448942E0,5.8E1,1.0205E3,7.0577637E2,5.725E2,3.15E2,1.075E2,2.8255225E2,8.866681E2,-6.457576E-2,4.74E2,-1.7428574E-1,5.0219263E2,-2.4294838E-1,-5.7623904E-2,-2.2688438E-1,-1.7558698E-1,2.1420613E-1,-2.4951692E-1,-1.15760766E-1,2.5510958E-1,8.890606E-2,-1.5400884E-1,7.232322E-2],"split_indices":[7,20,20,14,21,1,12,9,7,20,0,12,0,8,0,0,0,0,0,0,0,0,0,0,0],"split_type":[0,0,0,0,0,0,0,0,0,0,0,0,0,0,0,0,0,0,0,0,0,0,0,0,0],"sum_hessian":[3.0937698E2,2.855223E2,2.385466E1,1.4444698E2,1.4107533E2,1.2076047E1,1.1778613E1,1.3230107E2,1.2145911E1,1.3921129E2,1.8640575E0,1.01315365E1,1.9445101E0,2.4851644E0,9.293449E0,1.3007536E1,1.19293526E2,4.0507445E0,8.095167E0,1.3489827E2,4.3130174E0,5.8424835E0,4.289053E0,1.3289146E0,1.1562499E0],"tree_param":{"num_deleted":"0","num_feature":"22","num_nodes":"25","size_leaf_vector":"0"}},{"base_weights":[-1.1358421E0,-5.1797074E-1,-1.222078E0,-1.006087E0,5.414689E-1,-1.3065953E0,-6.653097E-1,-1.1538328E0,-2.2985247E-1,-9.838658E-1,1.2815404E0,-8.4084105E-1,-1.3478274E0,-1.2868229E0,2.566467E-1,-7.096403E-1,-1.3041952E0,6.5071136E-1,-1.0647428E0,1.387115E0,2.7223453E-1,-2.3412198E-2,-1.2813126E0,-3.4444395E-1,-1.3514729E0,2.7439266E-2,-1.3663712E0,1.019543E0,-1.2364008E0],"categories":[],"categories_nodes":[],"categories_segments":[],"categories_sizes":[],"default_left":[1,1,1,1,1,1,1,1,1,0,1,1,1,1,1,0,0,0,0,0,0,0,0,0,0,0,0,0,0],"id":48,"left_children":[1,3,5,7,9,11,13,15,17,-1,19,21,23,25,27,-1,-1,-1,-1,-1,-1,-1,-1,-1,-1,-1,-1,-1,-1],"loss_changes":[1.5708405E1,2.0866932E1,1.1760498E1,2.8602982E0,1.5986958E1,3.3216858E0,2.1766628E1,5.870342E-1,4.814624E0,0E0,6.0460186E-1,7.7202864E0,3.0795288E-1,2.3911057E0,1.9368807E1,0E0,0E0,0E0,0E0,0E0,0E0,0E0,0E0,0E0,0E0,0E0,0E0,0E0,0E0],"parents":[2147483647,0,0,1,1,2,2,3,3,4,4,5,5,6,6,7,7,8,8,10,10,11,11,12,12,13,13,14,14],"right_children":[2,4,6,8,10,12,14,16,18,-1,20,22,24,26,28,-1,-1,-1,-1,-1,-1,-1,-1,-1,-1,-1,-1,-1,-1],"split_conditions":[1.1063723E2,2.7908762E2,4.8492734E2,3.63E2,1.21E2,1.5488177E2,2.525E2,3.915E2,4.64E2,-1.7709585E-1,1.12E2,2.98E2,1.1079753E2,1.84E2,3.065E2,-1.2773526E-1,-2.3475514E-1,1.1712805E-1,-1.9165371E-1,2.4968071E-1,4.900222E-2,-4.214196E-3,-2.3063627E-1,-6.1999913E-2,-2.4326512E-1,4.939068E-3,-2.4594682E-1,1.8351775E-1,-2.2255217E-1],"split_indices":[1,0,20,21,9,13,21,10,17,0,3,1,2,1,1,0,0,0,0,0,0,0,0,0,0,0,0,0,0],"split_type":[0,0,0,0,0,0,0,0,0,0,0,0,0,0,0,0,0,0,0,0,0,0,0,0,0,0,0,0,0],"sum_hessian":[3.0569305E2,3.8298016E1,2.6739505E2,2.6252874E1,1.2045141E1,2.309848E2,3.641024E1,2.1646334E1,4.6065392E0,3.8273358E0,8.217805E0,2.0525328E1,2.1045949E2,2.1512434E1,1.4897805E1,6.920803E0,1.4725532E1,2.3493104E0,2.257229E0,7.1007338E0,1.1170709E0,7.556009E0,1.2969318E1,1.1074982E0,2.0935199E2,1.2651554E0,2.0247278E1,1.0069681E1,4.828124E0],"tree_param":{"num_deleted":"0","num_feature":"22","num_nodes":"29","size_leaf_vector":"0"}},{"base_weights":[-1.1395371E0,-1.2518752E0,-7.261441E-1,-1.3300123E0,-7.4118245E-1,2.688803E-1,-1.266367E0,-7.6009566E-1,-1.3935859E0,3.1406054E-1,-1.2019414E0,-1.2139086E0,6.630747E-1,-6.9963E-1,-1.4073702E0,-1.3746686E0,2.0605187E-1,-1.3978192E0,-3.7362057E-1,-7.746403E-1,1.335245E0,-1.3170594E0,5.1889914E-1,1.0514643E0,-9.6527565E-1,-1.2279313E0,1.7244071E-1],"categories":[],"categories_nodes":[],"categories_segments":[],"categories_sizes":[],"default_left":[1,1,1,1,1,1,1,1,1,1,1,0,1,1,0,0,0,0,0,0,0,0,0,0,0,0,0],"id":49,"left_children":[1,3,5,7,9,11,13,15,17,19,21,-1,23,25,-1,-1,-1,-1,-1,-1,-1,-1,-1,-1,-1,-1,-1],"loss_changes":[1.3370911E1,8.607452E0,3.693931E1,6.449646E0,1.6986778E1,1.5290808E1,2.5557175E0,1.3938724E1,2.776184E-1,1.3458596E1,5.4348984E0,0E0,1.3805946E1,5.194432E0,0E0,0E0,0E0,0E0,0E0,0E0,0E0,0E0,0E0,0E0,0E0,0E0,0E0],"parents":[2147483647,0,0,1,1,2,2,3,3,4,4,5,5,6,6,7,7,8,8,9,9,10,10,12,12,13,13],"right_children":[2,4,6,8,10,12,14,16,18,20,22,-1,24,26,-1,-1,-1,-1,-1,-1,-1,-1,-1,-1,-1,-1,-1],"split_conditions":[5.105426E2,6.39E2,2.9100287E2,8.810065E1,6.5099634E2,7.48E2,3.495E2,8.4E1,1.03E3,8.12E2,5.38E2,-2.1850355E-1,7.017772E2,3.375E2,-2.5332665E-1,-2.4744035E-1,3.7089337E-2,-2.5160745E-1,-6.7251705E-2,-1.3943526E-1,2.403441E-1,-2.370707E-1,9.340185E-2,1.8926358E-1,-1.7374963E-1,-2.2102764E-1,3.103933E-2],"split_indices":[13,17,3,3,2,10,1,5,10,10,12,0,2,9,0,0,0,0,0,0,0,0,0,0,0,0,0],"split_type":[0,0,0,0,0,0,0,0,0,0,0,0,0,0,0,0,0,0,0,0,0,0,0,0,0,0,0],"sum_hessian":[3.064937E2,2.3940732E2,6.708638E1,2.0624677E2,3.3160557E1,2.3783102E1,4.3303276E1,2.1997986E1,1.8424878E2,1.0175265E1,2.298529E1,4.558086E0,1.9225018E1,9.815091E0,3.3488186E1,1.3186884E1,8.811101E0,1.831183E2,1.1304779E0,5.0416803E0,5.133585E0,2.1764E1,1.2212915E0,1.5808656E1,3.4163606E0,5.8581533E0,3.9569383E0],"tree_param":{"num_deleted":"0","num_feature":"22","num_nodes":"27","size_leaf_vector":"0"}},{"base_weights":[-1.1336653E0,-8.859406E-1,-1.3845615E0,-5.9859246E-1,-1.3512099E0,-9.7465336E-1,2.7803436E-1,-1.3796524E0,-1.0062487E-1,4.1359654E-4,-1.1868045E0,6.9705474E-1,-1.4023938E0],"categories":[],"categories_nodes":[],"categories_segments":[],"categories_sizes":[],"default_left":[1,1,0,1,1,1,1,0,0,0,0,0,0],"id":50,"left_children":[1,3,-1,5,7,9,11,-1,-1,-1,-1,-1,-1],"loss_changes":[1.7886932E1,2.0250252E1,0E0,3.296468E1,1.9720383E0,1.440271E1,2.2488787E1,0E0,0E0,0E0,0E0,0E0,0E0],"parents":[2147483647,0,0,1,1,3,3,4,4,5,5,6,6],"right_children":[2,4,-1,6,8,10,12,-1,-1,-1,-1,-1,-1],"split_conditions":[3.5448942E0,2.925E2,-2.4922109E-1,7.32E2,7.097853E2,8.291281E1,9.945E2,-2.4833743E-1,-1.8112477E-2,7.444738E-5,-2.1362482E-1,1.2546986E-1,-2.524309E-1],"split_indices":[20,5,0,2,15,5,14,0,0,0,0,0,0],"split_type":[0,0,0,0,0,0,0,0,0,0,0,0,0],"sum_hessian":[3.0652393E2,1.5651675E2,1.5000717E2,9.8172455E1,5.834431E1,6.862251E1,2.954994E1,5.6945965E1,1.3983471E0,1.2440917E1,5.6181595E1,2.4120584E1,5.4293556E0],"tree_param":{"num_deleted":"0","num_feature":"22","num_nodes":"13","size_leaf_vector":"0"}},{"base_weights":[-1.1474544E0,-1.3298965E0,-2.975444E-1,-1.3848372E0,-1.1084201E0,2.0889534E-1,-1.2197082E0,1.4644334E-1,-1.2817591E0,8.859463E-1,-6.6093427E-1,-4.5159066E-1,-1.3830677E0,1.2236099E0,-1.0663036E0,-6.7702436E-1,1.3533463E0,5.674157E-1,-1.2243979E0,7.541311E-1,-1.1794517E0],"categories":[],"categories_nodes":[],"categories_segments":[],"categories_sizes":[],"default_left":[1,1,1,0,1,1,1,1,0,1,1,1,0,0,0,0,0,0,0,0,0],"id":51,"left_children":[1,3,5,-1,7,9,11,13,-1,15,17,19,-1,-1,-1,-1,-1,-1,-1,-1,-1],"loss_changes":[4.6865906E1,1.5148315E0,2.6012535E1,0E0,1.21137085E1,2.2054756E1,1.8471203E0,1.1169962E1,0E0,1.6203747E1,1.2134809E1,5.224267E0,0E0,0E0,0E0,0E0,0E0,0E0,0E0,0E0,0E0],"parents":[2147483647,0,0,1,1,2,2,4,4,5,5,6,6,7,7,9,9,10,10,11,11],"right_children":[2,4,6,-1,8,10,12,14,-1,16,18,20,-1,-1,-1,-1,-1,-1,-1,-1,-1],"split_conditions":[8.855E2,4.4816388E2,1.063E3,-2.4927069E-1,4.98E2,1.855E2,2.0201E2,2.915E2,-2.3071666E-1,2.1794446E2,2.365E2,4.31E2,-2.489522E-1,2.202498E-1,-1.9193466E-1,-1.2186439E-1,2.4360235E-1,1.0213483E-1,-2.2039163E-1,1.357436E-1,-2.1230131E-1],"split_indices":[18,18,18,0,18,16,5,4,0,20,7,19,0,0,0,0,0,0,0,0,0],"split_type":[0,0,0,0,0,0,0,0,0,0,0,0,0,0,0,0,0,0,0,0,0],"sum_hessian":[3.037969E2,2.4964355E2,5.415336E1,1.958156E2,5.3827957E1,3.5455276E1,1.869808E1,6.5518575E0,4.72761E1,1.9926512E1,1.5528766E1,3.939398E0,1.4758683E1,3.4651449E0,3.0867126E0,4.483925E0,1.5442588E1,4.8810563E0,1.0647709E1,1.4693266E0,2.4700713E0],"tree_param":{"num_deleted":"0","num_feature":"22","num_nodes":"21","size_leaf_vector":"0"}},{"base_weights":[-1.0543675E0,-8.2008034E-1,-1.2895457E0,-1.106554E0,-2.6491615E-1,-1.2997152E0,-5.334859E-1,-8.8031805E-1,-1.2774178E0,9.758874E-1,-9.023905E-1,5.311872E-2,-8.1979686E-1,-1.1480628E0,8.753409E-1,-1.3056237E0,-6.075734E-1,1.1849037E0,-8.0545646E-1,-1.1667697E0,1.1031399E0],"categories":[],"categories_nodes":[],"categories_segments":[],"categories_sizes":[],"default_left":[1,1,1,1,1,0,1,1,1,1,1,0,0,0,0,0,0,0,0,0,0],"id":52,"left_children":[1,3,5,7,9,-1,11,13,15,17,19,-1,-1,-1,-1,-1,-1,-1,-1,-1,-1],"loss_changes":[1.4109589E1,2.2074623E1,3.49411E-1,2.4494095E0,3.9785885E1,0E0,6.307539E-1,2.1217358E1,1.6004944E-1,7.348732E0,1.879089E1,0E0,0E0,0E0,0E0,0E0,0E0,0E0,0E0,0E0,0E0],"parents":[2147483647,0,0,1,1,2,2,3,3,4,4,6,6,7,7,8,8,9,9,10,10],"right_children":[2,4,6,8,10,-1,12,14,16,18,20,-1,-1,-1,-1,-1,-1,-1,-1,-1,-1],"split_conditions":[3.5448942E0,1.2948863E2,7.025E2,2.7932538E2,8.6939316E1,-2.3394874E-1,2.2568527E2,2.723258E2,4.4688193E2,6.32E2,4.6444464E2,9.56137E-3,-1.4756344E-1,-2.0665132E-1,1.5756136E-1,-2.3501226E-1,-1.0936321E-1,2.1328267E-1,-1.4498217E-1,-2.1001856E-1,1.9856519E-1],"split_indices":[20,18,21,7,19,0,9,5,9,18,9,0,0,0,0,0,0,0,0,0,0],"split_type":[0,0,0,0,0,0,0,0,0,0,0,0,0,0,0,0,0,0,0,0,0],"sum_hessian":[2.742687E2,1.3964236E2,1.3462634E2,9.1456245E1,4.8186115E1,1.3213005E2,2.4962943E0,4.199885E1,4.9457394E1,1.6173857E1,3.2012257E1,1.0859109E0,1.4103832E0,3.674168E1,5.257171E0,4.65482E1,2.9091969E0,1.4775034E1,1.3988228E0,2.8653261E1,3.3589954E0],"tree_param":{"num_deleted":"0","num_feature":"22","num_nodes":"21","size_leaf_vector":"0"}},{"base_weights":[-1.0607748E0,-1.152325E0,2.3452863E-1,-7.2800845E-1,-1.2313154E0,-1.0736945E0,9.5444256E-1,-1.198005E0,7.683727E-1,-1.2729291E0,-4.68148E-1,-2.3302488E-1,-1.1749866E0,1.3047639E0,-6.1145204E-1,-1.2757411E0,1.1691071E-2,-9.930734E-1,1.5181322E0,-1.2918057E0,6.771469E-1,1.8846596E0,-1.2372947E0],"categories":[],"categories_nodes":[],"categories_segments":[],"categories_sizes":[],"default_left":[1,1,1,1,1,1,1,1,1,1,1,0,0,0,0,0,0,0,0,0,0,0,0],"id":53,"left_children":[1,3,5,7,9,11,13,15,17,19,21,-1,-1,-1,-1,-1,-1,-1,-1,-1,-1,-1,-1],"loss_changes":[3.295865E1,7.738373E0,1.8945074E1,3.1076973E1,6.255829E0,3.4140396E-1,7.821019E0,3.120098E0,1.5847353E1,8.384491E0,2.538244E1,0E0,0E0,0E0,0E0,0E0,0E0,0E0,0E0,0E0,0E0,0E0,0E0],"parents":[2147483647,0,0,1,1,2,2,3,3,4,4,5,5,6,6,7,7,8,8,9,9,10,10],"right_children":[2,4,6,8,10,12,14,16,18,20,22,-1,-1,-1,-1,-1,-1,-1,-1,-1,-1,-1,-1],"split_conditions":[4.8686285E2,2.1120653E2,4.025E2,2.35E2,8.75E2,1.0129945E2,4.4540698E2,8.27E2,1.07E2,6.19E2,4.415E2,-4.194448E-2,-2.1149759E-1,2.3485751E-1,-1.1006137E-1,-2.296334E-1,2.104393E-3,-1.7875323E-1,2.732638E-1,-2.3252505E-1,1.2188645E-1,3.3923876E-1,-2.2271305E-1],"split_indices":[16,13,11,16,6,17,13,6,12,11,13,0,0,0,0,0,0,0,0,0,0,0,0],"split_type":[0,0,0,0,0,0,0,0,0,0,0,0,0,0,0,0,0,0,0,0,0,0,0],"sum_hessian":[2.7465292E2,2.5662537E2,1.8027546E1,4.187888E1,2.1474649E2,6.224678E0,1.1802867E1,3.2020878E1,9.858E0,2.0300894E2,1.1737549E1,1.0242753E0,5.200403E0,9.781349E0,2.021518E0,3.0036135E1,1.9847441E0,2.8463683E0,7.0116315E0,2.0139699E2,1.6119486E0,2.534433E0,9.203116E0],"tree_param":{"num_deleted":"0","num_feature":"22","num_nodes":"23","size_leaf_vector":"0"}},{"base_weights":[-1.0457287E0,-1.1341426E0,-5.135835E-1,-9.8204726E-1,-1.2772233E0,-6.466595E-2,-1.2070756E0,-1.1056473E0,-1.773041E-1,6.1608416E-1,-1.158002E0,-2.5467274E-1,-1.2557163E0,-9.6014977E-1,-1.3103275E0,1.4136341E0,-1.2111636E0,1.0801783E0,-5.485823E-1,-3.3283868E-1,-1.2184606E0],"categories":[],"categories_nodes":[],"categories_segments":[],"categories_sizes":[],"default_left":[1,1,1,1,0,1,1,1,1,1,1,0,0,0,0,0,0,0,0,0,0],"id":54,"left_children":[1,3,5,7,-1,9,11,13,15,17,19,-1,-1,-1,-1,-1,-1,-1,-1,-1,-1],"loss_changes":[1.2528137E1,3.9278564E0,1.2850925E1,1.1715622E1,0E0,2.0263494E1,4.335823E-1,1.8277435E0,2.9896425E1,9.695085E0,1.1460018E-1,0E0,0E0,0E0,0E0,0E0,0E0,0E0,0E0,0E0,0E0],"parents":[2147483647,0,0,1,1,2,2,3,3,5,5,6,6,7,7,8,8,9,9,10,10],"right_children":[2,4,6,8,-1,10,12,14,16,18,20,-1,-1,-1,-1,-1,-1,-1,-1,-1,-1],"split_conditions":[3.815E2,1.7673898E2,3.74E2,1.67612E2,-2.2990021E-1,5.505E2,3.8804315E2,5.055E2,2.745E2,7.835E2,4.0708545E2,-4.5841094E-2,-2.2602895E-1,-1.7282696E-1,-2.3585896E-1,2.5445414E-1,-2.1800946E-1,1.944321E-1,-9.874482E-2,-5.9910964E-2,-2.193229E-1],"split_indices":[16,17,17,16,0,20,16,13,20,2,11,0,0,0,0,0,0,0,0,0,0],"split_type":[0,0,0,0,0,0,0,0,0,0,0,0,0,0,0,0,0,0,0,0,0],"sum_hessian":[2.7765927E2,2.3712982E2,4.052946E1,1.18755714E2,1.1837411E2,2.5266783E1,1.5262677E1,1.0262039E2,1.6135319E1,1.5840458E1,9.426326E0,1.0446118E0,1.4218065E1,6.3308403E1,3.9311993E1,6.210718E0,9.9246E0,1.13787985E1,4.4616594E0,1.0875967E0,8.338729E0],"tree_param":{"num_deleted":"0","num_feature":"22","num_nodes":"21","size_leaf_vector":"0"}},{"base_weights":[-1.0685709E0,-1.196739E0,2.1907857E-1,-1.2905647E0,-9.7441727E-1,-1.1294417E0,7.3154384E-1,2.9493612E-1,-1.2339057E0,-3.2590136E-1,-1.2095773E0,1.2102898E0,-2.4413837E-3,-9.3857473E-1,1.0493611E0,-1.2895386E0,-1.04602605E-1,1.3034711E0,1.2031217E-1,-1.1108836E0,8.76909E-1],"categories":[],"categories_nodes":[],"categories_segments":[],"categories_sizes":[],"default_left":[1,1,1,0,1,1,1,1,1,0,0,1,1,0,0,0,0,0,0,0,0],"id":55,"left_children":[1,3,5,-1,7,9,11,13,15,-1,-1,17,19,-1,-1,-1,-1,-1,-1,-1,-1],"loss_changes":[4.499646E1,3.888031E0,1.8367725E1,0E0,2.5821945E1,8.119869E-2,6.6794777E0,1.3943809E1,3.908928E0,0E0,0E0,1.0113354E0,9.257833E0,0E0,0E0,0E0,0E0,0E0,0E0,0E0,0E0],"parents":[2147483647,0,0,1,1,2,2,4,4,5,5,6,6,7,7,8,8,11,11,12,12],"right_children":[2,4,6,-1,8,10,12,14,16,-1,-1,18,20,-1,-1,-1,-1,-1,-1,-1,-1],"split_conditions":[4.0096695E2,1.4629428E2,9.105E2,-2.3230165E-1,2E2,6.640332E2,3.175E2,3.17E2,1.065E3,-5.8662247E-2,-2.1772392E-1,3.575E2,6.745E2,-1.6894346E-1,1.88885E-1,-2.3211697E-1,-1.882847E-2,2.346248E-1,2.1656191E-2,-1.9995905E-1,1.5784363E-1],"split_indices":[21,21,18,0,20,6,5,17,18,0,0,20,17,0,0,0,0,0,0,0,0],"split_type":[0,0,0,0,0,0,0,0,0,0,0,0,0,0,0,0,0,0,0,0,0],"sum_hessian":[2.7005884E2,2.4567577E2,2.4383093E1,1.6938559E2,7.629016E1,6.382914E0,1.800018E1,1.2925449E1,6.3364716E1,1.038316E0,5.3445983E0,1.0501553E1,7.4986258E0,4.812596E0,8.112853E0,6.02545E1,3.1102123E0,9.494045E0,1.0075078E0,3.2007296E0,4.2978964E0],"tree_param":{"num_deleted":"0","num_feature":"22","num_nodes":"21","size_leaf_vector":"0"}},{"base_weights":[-1.0369692E0,2.390845E-2,-1.126727E0,-6.5455484E-1,8.362247E-1,-1.1674981E0,1.0180024E0,-8.9984584E-1,5.2022356E-1,1.0986651E0,-7.862773E-1,-1.2613802E0,-7.981533E-1,1.1340317E0,2.6734963E-1,-1.0538162E0,-7.2735794E-2,1.3245503E0,3.5733673E-1,-1.7579566E-1,-1.2678587E0,1.8991525E-1,-1.164527E0],"categories":[],"categories_nodes":[],"categories_segments":[],"categories_sizes":[],"default_left":[1,1,1,1,1,1,1,1,0,1,0,1,1,0,0,0,0,0,0,0,0,0,0],"id":56,"left_children":[1,3,5,7,9,11,13,15,-1,17,-1,19,21,-1,-1,-1,-1,-1,-1,-1,-1,-1,-1],"loss_changes":[2.6598938E1,1.3084037E1,2.368814E1,4.2015047E0,5.4590025E0,7.764984E0,1.614232E-1,1.334938E0,0E0,1.1520367E0,0E0,1.1835327E0,1.9766655E1,0E0,0E0,0E0,0E0,0E0,0E0,0E0,0E0,0E0,0E0],"parents":[2147483647,0,0,1,1,2,2,3,3,4,4,5,5,6,6,7,7,9,9,11,11,12,12],"right_children":[2,4,6,8,10,12,14,16,-1,18,-1,20,22,-1,-1,-1,-1,-1,-1,-1,-1,-1,-1],"split_conditions":[3.517364E1,2.105E2,5.7202527E2,5.05E2,6.905E2,3.7681512E2,2.565E2,5.0267654E2,9.3640245E-2,3.645E2,-1.4152992E-1,5.7930176E1,4.09E2,2.041257E-1,4.8122935E-2,-1.8968692E-1,-1.3092443E-2,2.3841906E-1,6.432062E-2,-3.164322E-2,-2.2821458E-1,3.4184746E-2,-2.0961487E-1],"split_indices":[0,19,1,20,8,1,16,13,0,21,0,2,11,0,0,0,0,0,0,0,0,0,0],"split_type":[0,0,0,0,0,0,0,0,0,0,0,0,0,0,0,0,0,0,0,0,0,0,0],"sum_hessian":[2.7805328E2,2.1747364E1,2.5630594E2,1.1955825E1,9.79154E0,2.519716E2,4.334317E0,1.008428E1,1.8715447E0,8.70617E0,1.0853696E0,1.989789E2,5.2992714E1,3.3116972E0,1.02262E0,8.270578E0,1.8137012E0,6.0699205E0,2.63625E0,1.3473265E0,1.9763158E2,1.4464701E1,3.8528015E1],"tree_param":{"num_deleted":"0","num_feature":"22","num_nodes":"23","size_leaf_vector":"0"}},{"base_weights":[-1.0625583E0,-7.936364E-1,-1.2889329E0,-9.271075E-1,7.904375E-1,-7.988748E-2,-1.0653309E0,1.1450016E0,-8.337491E-1,-9.161716E-1,1.0868134E0,-1.1706434E0,4.2590266E-1,4.771874E-2,1.2784114E0],"categories":[],"categories_nodes":[],"categories_segments":[],"categories_sizes":[],"default_left":[1,1,0,1,1,1,1,1,0,0,0,0,0,0,0],"id":57,"left_children":[1,3,-1,5,7,9,11,13,-1,-1,-1,-1,-1,-1,-1],"loss_changes":[1.5530731E1,2.7559395E1,0E0,1.3672791E1,6.943715E0,1.8128706E1,1.6348083E1,1.2503042E0,0E0,0E0,0E0,0E0,0E0,0E0,0E0],"parents":[2147483647,0,0,1,1,3,3,4,4,5,5,6,6,7,7],"right_children":[2,4,-1,6,8,10,12,14,-1,-1,-1,-1,-1,-1,-1],"split_conditions":[6.115E2,4.04E2,-2.3200794E-1,2.535E2,4.58E2,1.0262984E2,5.568484E2,6.8131485E1,-1.5007484E-1,-1.649109E-1,1.9562642E-1,-2.1071583E-1,7.666248E-2,8.589374E-3,2.3011406E-1],"split_indices":[2,3,0,6,9,7,8,20,0,0,0,0,0,0,0],"split_type":[0,0,0,0,0,0,0,0,0,0,0,0,0,0,0],"sum_hessian":[2.709193E2,1.25882706E2,1.4503659E2,1.1648281E2,9.399893E0,1.6559814E1,9.9923E1,7.957731E0,1.4421623E0,9.770857E0,6.7889576E0,9.353261E1,6.390392E0,1.0098119E0,6.947919E0],"tree_param":{"num_deleted":"0","num_feature":"22","num_nodes":"15","size_leaf_vector":"0"}},{"base_weights":[-1.0753496E0,-1.1679924E0,-2.9288027E-1,-6.927035E-1,-1.2429962E0,4.3395036E-1,-1.2615517E0,-1.2377185E0,5.5863854E-2,-1.2859015E0,-9.4499505E-1,-7.6499104E-1,9.125184E-1,-1.3043649E0,-1.256667E-1,1.0974262E0,-8.99468E-1,-4.3287995E-1,-1.2912623E0,1.2042167E0,-1.1219783E0,3.053981E-1,-1.0859324E0,1.149139E0,-3.566639E-1],"categories":[],"categories_nodes":[],"categories_segments":[],"categories_sizes":[],"default_left":[1,1,1,1,1,1,0,1,1,1,1,1,1,0,0,0,0,0,0,0,0,0,0,0,0],"id":58,"left_children":[1,3,5,7,9,11,-1,13,15,17,19,21,23,-1,-1,-1,-1,-1,-1,-1,-1,-1,-1,-1,-1],"loss_changes":[1.9464478E1,7.836151E0,2.185225E1,1.4557152E1,1.4629517E0,1.1044439E1,0E0,1.3623123E0,1.6826717E1,2.65625E-1,1.2813236E1,2.2857413E0,4.4172087E0,0E0,0E0,0E0,0E0,0E0,0E0,0E0,0E0,0E0,0E0,0E0,0E0],"parents":[2147483647,0,0,1,1,2,2,3,3,4,4,5,5,7,7,8,8,9,9,10,10,11,11,12,12],"right_children":[2,4,6,8,10,12,-1,14,16,18,20,22,24,-1,-1,-1,-1,-1,-1,-1,-1,-1,-1,-1,-1],"split_conditions":[7.5804016E2,1.855E2,8.51E2,3.87E2,3.9794824E2,2.87E2,-2.2707932E-1,2.5561644E2,1.705E2,2.1766035E2,3.36E2,3.9387946E2,5.385E2,-2.3478569E-1,-2.2620006E-2,1.9753672E-1,-1.6190425E-1,-7.7918395E-2,-2.3242722E-1,2.1675901E-1,-2.019561E-1,5.497166E-2,-1.9546783E-1,2.0684503E-1,-6.419951E-2],"split_indices":[4,12,6,18,1,5,0,13,19,6,12,11,12,0,0,0,0,0,0,0,0,0,0,0,0],"split_type":[0,0,0,0,0,0,0,0,0,0,0,0,0,0,0,0,0,0,0,0,0,0,